{"learner":{"attributes":{"scikit_learn":"{\"_estimator_type\": \"regressor\"}"},"feature_names":["min_sip","min_lumpsum","expense_ratio","fund_size_cr","fund_age_yr","sortino","alpha","sd","beta","sharpe","risk_level","amc_name","rating","category","sub_category"],"feature_types":["int","int","float","float","int","float","float","float","float","float","int","int","int","int","int"],"gradient_booster":{"model":{"gbtree_model_param":{"num_parallel_tree":"1","num_trees":"300"},"iteration_indptr":[0,1,2,3,4,5,6,7,8,9,10,11,12,13,14,15,16,17,18,19,20,21,22,23,24,25,26,27,28,29,30,31,32,33,34,35,36,37,38,39,40,41,42,43,44,45,46,47,48,49,50,51,52,53,54,55,56,57,58,59,60,61,62,63,64,65,66,67,68,69,70,71,72,73,74,75,76,77,78,79,80,81,82,83,84,85,86,87,88,89,90,91,92,93,94,95,96,97,98,99,100,101,102,103,104,105,106,107,108,109,110,111,112,113,114,115,116,117,118,119,120,121,122,123,124,125,126,127,128,129,130,131,132,133,134,135,136,137,138,139,140,141,142,143,144,145,146,147,148,149,150,151,152,153,154,155,156,157,158,159,160,161,162,163,164,165,166,167,168,169,170,171,172,173,174,175,176,177,178,179,180,181,182,183,184,185,186,187,188,189,190,191,192,193,194,195,196,197,198,199,200,201,202,203,204,205,206,207,208,209,210,211,212,213,214,215,216,217,218,219,220,221,222,223,224,225,226,227,228,229,230,231,232,233,234,235,236,237,238,239,240,241,242,243,244,245,246,247,248,249,250,251,252,253,254,255,256,257,258,259,260,261,262,263,264,265,266,267,268,269,270,271,272,273,274,275,276,277,278,279,280,281,282,283,284,285,286,287,288,289,290,291,292,293,294,295,296,297,298,299,300],"tree_info":[0,0,0,0,0,0,0,0,0,0,0,0,0,0,0,0,0,0,0,0,0,0,0,0,0,0,0,0,0,0,0,0,0,0,0,0,0,0,0,0,0,0,0,0,0,0,0,0,0,0,0,0,0,0,0,0,0,0,0,0,0,0,0,0,0,0,0,0,0,0,0,0,0,0,0,0,0,0,0,0,0,0,0,0,0,0,0,0,0,0,0,0,0,0,0,0,0,0,0,0,0,0,0,0,0,0,0,0,0,0,0,0,0,0,0,0,0,0,0,0,0,0,0,0,0,0,0,0,0,0,0,0,0,0,0,0,0,0,0,0,0,0,0,0,0,0,0,0,0,0,0,0,0,0,0,0,0,0,0,0,0,0,0,0,0,0,0,0,0,0,0,0,0,0,0,0,0,0,0,0,0,0,0,0,0,0,0,0,0,0,0,0,0,0,0,0,0,0,0,0,0,0,0,0,0,0,0,0,0,0,0,0,0,0,0,0,0,0,0,0,0,0,0,0,0,0,0,0,0,0,0,0,0,0,0,0,0,0,0,0,0,0,0,0,0,0,0,0,0,0,0,0,0,0,0,0,0,0,0,0,0,0,0,0,0,0,0,0,0,0,0,0,0,0,0,0,0,0,0,0,0,0,0,0,0,0,0,0,0,0,0,0,0,0,0,0,0,0,0,0],"trees":[{"base_weights":[2.0521423E-1,3.164585E0,-1.155426E-1,-4.2288036E0,5.6427497E-1,3.444467E-1,-4.768144E0,-1.0950658E-1,2.2223449E0,-8.542363E0,-3.7162225E0,8.05578E-1,-1.1104224E0,1.1981839E0,3.8784432E0,-2.98745E0,-5.1260126E-1,-4.283864E0,-2.5626822E0,5.071486E0,5.521323E-1,-2.4512572E0,4.7444817E-1,4.3403846E-1,1.7027675E0,-2.039525E0,5.3272867E0,-2.5414998E-2,-1.8222E-1,-8.8663995E-2,-2.3142043E-1,-1.9372497E-2,-1.5005642E-1,3.79336E-1,-4.055333E-2,2.64336E-1,1.7254021E-2,-1.5234858E-2,-2.4787036E-1,-8.3802335E-2,1.518032E-1,-7.4664E-2,4.2616818E-2,6.7949645E-2,1.24753E-1,-1.2071142E-1,1.4585006E-2,1.27892E-1,3.7953436E-1],"categories":[],"categories_nodes":[],"categories_segments":[],"categories_sizes":[],"default_left":[0,0,0,0,0,0,0,0,0,0,0,0,0,0,0,0,0,0,0,0,0,0,0,0,0,0,0,0,0,0,0,0,0,0,0,0,0,0,0,0,0,0,0,0,0,0,0,0,0],"id":0,"left_children":[1,-1,3,5,7,-1,9,11,13,15,17,19,21,23,25,27,-1,29,31,33,35,37,39,41,43,45,47,-1,-1,-1,-1,-1,-1,-1,-1,-1,-1,-1,-1,-1,-1,-1,-1,-1,-1,-1,-1,-1,-1],"loss_changes":[8.000304E3,0E0,1.1041155E3,3.686374E2,3.789663E2,0E0,1.8264453E2,2.225478E2,1.6157181E2,7.383984E1,1.7832886E1,1.3450923E2,2.4766872E2,2.3166603E1,3.2811084E2,4.662262E0,0E0,1.6012695E1,1.5050491E1,1.0972533E2,1.167926E2,3.3740436E2,3.025606E2,2.2233803E1,6.686928E0,7.692379E0,1.6863531E2,0E0,0E0,0E0,0E0,0E0,0E0,0E0,0E0,0E0,0E0,0E0,0E0,0E0,0E0,0E0,0E0,0E0,0E0,0E0,0E0,0E0,0E0],"parents":[2147483647,0,0,2,2,3,3,4,4,6,6,7,7,8,8,9,9,10,10,11,11,12,12,13,13,14,14,15,15,17,17,18,18,19,19,20,20,21,21,22,22,23,23,24,24,25,25,26,26],"right_children":[2,-1,4,6,8,-1,10,12,14,16,18,20,22,24,26,28,-1,30,32,34,36,38,40,42,44,46,48,-1,-1,-1,-1,-1,-1,-1,-1,-1,-1,-1,-1,-1,-1,-1,-1,-1,-1,-1,-1,-1,-1],"split_conditions":[-3.29E0,3.164585E0,-5.7E-1,1.1E-1,3.56E0,3.444467E-1,2.22E0,6E0,6.37E0,8.7E-1,1.28E0,-1E-2,3.14E0,2.782E3,9.9E1,5.5E-1,-5.1260126E-1,6.8E-1,-1.07E0,2E-1,-9.5E-1,1.447E3,3.73E0,3.64E0,6.6E-1,1E3,7.8E-1,-2.5414998E-2,-1.8222E-1,-8.8663995E-2,-2.3142043E-1,-1.9372497E-2,-1.5005642E-1,3.79336E-1,-4.055333E-2,2.64336E-1,1.7254021E-2,-1.5234858E-2,-2.4787036E-1,-8.3802335E-2,1.518032E-1,-7.4664E-2,4.2616818E-2,6.7949645E-2,1.24753E-1,-1.2071142E-1,1.4585006E-2,1.27892E-1,3.7953436E-1],"split_indices":[8,0,6,2,5,0,5,10,6,8,9,6,5,3,0,2,0,8,6,2,8,3,6,5,2,1,2,0,0,0,0,0,0,0,0,0,0,0,0,0,0,0,0,0,0,0,0,0,0],"split_type":[0,0,0,0,0,0,0,0,0,0,0,0,0,0,0,0,0,0,0,0,0,0,0,0,0,0,0,0,0,0,0,0,0,0,0,0,0,0,0,0,0,0,0,0,0,0,0,0,0],"sum_hessian":[3.94E2,1E0,3.93E2,5.5E1,3.38E2,2E0,5.3E1,2.41E2,9.7E1,1E1,4.3E1,1.26E2,1.15E2,6.1E1,3.6E1,3E0,7E0,2.7E1,1.6E1,6E0,1.2E2,6.2E1,5.3E1,2.5E1,3.6E1,7E0,2.9E1,1E0,2E0,4E0,2.3E1,3E0,1.3E1,4E0,2E0,4E0,1.16E2,3.4E1,2.8E1,2.9E1,2.4E1,4E0,2.1E1,2.7E1,9E0,6E0,1E0,1.4E1,1.5E1],"tree_param":{"num_deleted":"0","num_feature":"15","num_nodes":"49","size_leaf_vector":"1"}},{"base_weights":[4.1746233E-2,-2.7379614E-1,3.0854704E0,-4.2361546E0,2.9305327E-1,2.4347384E-1,-4.5273023E0,-5.597444E-1,1.9030232E0,-3.996609E0,-4.1459724E-1,-7.382776E0,3.340131E-2,6.8729275E-1,3.5669854E0,-4.5970225E0,-1.777457E0,-2.6312351E0,-1.2993297E1,1.0731618E0,-1.1908314E0,4.3676022E-2,2.2941508E0,6.0481944E0,1.7112396E0,-9.1343634E-2,-2.5626904E-1,-1.16152756E-1,-1.2094832E-2,3.330619E-2,-2.3053002E-1,-7.074644E-1,-1.2253412E-1,1.5904052E-2,3.4285042E-1,-1.618823E-1,-1.282869E-2,4.299221E-2,-5.3563293E-2,8.414659E-2,2.598374E-1,5.005001E-2,3.5884437E-1,-9.899536E-2,1.2643325E-1],"categories":[],"categories_nodes":[],"categories_segments":[],"categories_sizes":[],"default_left":[0,0,0,0,0,0,0,0,0,0,0,0,0,0,0,0,0,0,0,0,0,0,0,0,0,0,0,0,0,0,0,0,0,0,0,0,0,0,0,0,0,0,0,0,0],"id":1,"left_children":[1,3,-1,5,7,-1,9,11,13,15,-1,17,19,21,23,25,27,29,31,33,35,37,39,41,43,-1,-1,-1,-1,-1,-1,-1,-1,-1,-1,-1,-1,-1,-1,-1,-1,-1,-1,-1,-1],"loss_changes":[7.64473E3,8.7945105E2,0E0,1.5194885E2,4.719969E2,0E0,6.275824E1,9.1083325E2,2.3827698E2,5.0454956E1,0E0,4.4566675E2,2.6604303E2,7.229385E1,2.1987482E2,4.0400085E1,8.653847E0,7.4864685E1,6.2821777E1,4.9132065E2,1.8274553E2,4.73301E1,2.673668E1,1.12447266E2,9.552368E1,0E0,0E0,0E0,0E0,0E0,0E0,0E0,0E0,0E0,0E0,0E0,0E0,0E0,0E0,0E0,0E0,0E0,0E0,0E0,0E0],"parents":[2147483647,0,0,1,1,3,3,4,4,6,6,7,7,8,8,9,9,11,11,12,12,13,13,14,14,15,15,16,16,17,17,18,18,19,19,20,20,21,21,22,22,23,23,24,24],"right_children":[2,4,-1,6,8,-1,10,12,14,16,-1,18,20,22,24,26,28,30,32,34,36,38,40,42,44,-1,-1,-1,-1,-1,-1,-1,-1,-1,-1,-1,-1,-1,-1,-1,-1,-1,-1,-1,-1],"split_conditions":[7.772E1,-6E-1,3.0854704E0,7E-2,1.55E0,2.4347384E-1,1.772E1,1E0,6.38E0,1.671E1,-4.1459724E-1,1.961E1,1.19E0,9.234E3,7.8E-1,1.252E1,3.9E-1,1.5E2,9.72E0,1.163E1,9.2E-1,1.282E1,1.681E1,1.6E0,4.2E1,-9.1343634E-2,-2.5626904E-1,-1.16152756E-1,-1.2094832E-2,3.330619E-2,-2.3053002E-1,-7.074644E-1,-1.2253412E-1,1.5904052E-2,3.4285042E-1,-1.618823E-1,-1.282869E-2,4.299221E-2,-5.3563293E-2,8.414659E-2,2.598374E-1,5.005001E-2,3.5884437E-1,-9.899536E-2,1.2643325E-1],"split_indices":[7,6,0,2,9,0,7,12,6,7,0,7,9,3,8,7,2,0,6,7,6,7,7,9,3,0,0,0,0,0,0,0,0,0,0,0,0,0,0,0,0,0,0,0,0],"split_type":[0,0,0,0,0,0,0,0,0,0,0,0,0,0,0,0,0,0,0,0,0,0,0,0,0,0,0,0,0,0,0,0,0,0,0,0,0,0,0,0,0,0,0,0,0],"sum_hessian":[3.91E2,3.9E2,1E0,4.8E1,3.42E2,1E0,4.7E1,2.24E2,1.18E2,4.3E1,4E0,1.7E1,2.07E2,6.9E1,4.9E1,3.3E1,1E1,1E1,7E0,1.12E2,9.5E1,5E1,1.9E1,2E1,2.9E1,6E0,2.7E1,7E0,3E0,4E0,6E0,6E0,1E0,1E2,1.2E1,2.9E1,6.6E1,2.9E1,2.1E1,1.7E1,2E0,4E0,1.6E1,5E0,2.4E1],"tree_param":{"num_deleted":"0","num_feature":"15","num_nodes":"45","size_leaf_vector":"1"}},{"base_weights":[1.14760555E-1,-1.9508116E-1,3.0083337E0,-4.6688395E0,4.805306E-1,-8.148169E0,-3.8320303E0,-2.7734074E-1,2.0539124E0,-1.8593175E0,-4.8396835E-1,-4.4553814E0,-2.2225618E0,-5.70248E0,1.2957314E-1,8.715502E-1,3.6799912E0,-2.2496039E-2,-1.1695278E-1,-1.2346469E0,-4.767513E0,1.123182E-2,-2.649148E0,-1.558925E0,-5.4036015E-1,1.3627425E0,-1.1397197E0,2.519401E-1,2.1577837E0,-1.8124619E0,4.8839936E0,-7.6091714E-2,-9.32712E-3,-6.609172E-2,-2.495147E-1,2.2243131E-2,-1.485432E-1,6.3984506E-2,-1.8323085E-1,1.3203396E-2,3.4512416E-1,-1.4625385E-1,1.5714929E-3,-3.122281E-2,7.4204266E-2,7.958655E-2,2.5117615E-1,-5.960417E-3,-1.3196103E-1,7.1077175E-2,3.964561E-1],"categories":[],"categories_nodes":[],"categories_segments":[],"categories_sizes":[],"default_left":[0,0,0,0,0,0,0,0,0,0,0,0,0,0,0,0,0,0,0,0,0,0,0,0,0,0,0,0,0,0,0,0,0,0,0,0,0,0,0,0,0,0,0,0,0,0,0,0,0,0,0],"id":2,"left_children":[1,3,-1,5,7,9,11,13,15,17,-1,19,21,23,25,27,29,-1,-1,31,33,-1,35,37,-1,39,41,43,45,47,49,-1,-1,-1,-1,-1,-1,-1,-1,-1,-1,-1,-1,-1,-1,-1,-1,-1,-1,-1,-1],"loss_changes":[7.2496997E3,1.1749827E3,0E0,1.17264404E2,4.036079E2,6.866821E1,3.3237976E1,5.0627112E2,2.0828024E2,9.7603416E-1,0E0,2.4272644E1,1.5210266E1,3.215796E2,3.365173E2,5.1258976E1,3.130467E2,0E0,0E0,9.201231E-1,1.41297E1,0E0,1.3266335E1,6.446206E1,0E0,6.6159186E2,2.2172948E2,4.9519882E1,2.6069252E1,1.2284592E1,3.8938525E2,0E0,0E0,0E0,0E0,0E0,0E0,0E0,0E0,0E0,0E0,0E0,0E0,0E0,0E0,0E0,0E0,0E0,0E0,0E0,0E0],"parents":[2147483647,0,0,1,1,3,3,4,4,5,5,6,6,7,7,8,8,9,9,11,11,12,12,13,13,14,14,15,15,16,16,19,19,20,20,22,22,23,23,25,25,26,26,27,27,28,28,29,29,30,30],"right_children":[2,4,-1,6,8,10,12,14,16,18,-1,20,22,24,26,28,30,-1,-1,32,34,-1,36,38,-1,40,42,44,46,48,50,-1,-1,-1,-1,-1,-1,-1,-1,-1,-1,-1,-1,-1,-1,-1,-1,-1,-1,-1,-1],"split_conditions":[7.772E1,-5.7E-1,3.0083337E0,2.22E0,1.55E0,1.444E1,1.28E0,1E0,6.38E0,1E3,-4.8396835E-1,2.29E0,-1.07E0,1.961E1,1.19E0,9.234E3,9.9E1,-2.2496039E-2,-1.1695278E-1,1E3,6E0,1.123182E-2,2.88E0,1.5E2,-5.4036015E-1,1.099E1,1.73E0,4E0,1.681E1,1.27E0,7.8E-1,-7.6091714E-2,-9.32712E-3,-6.609172E-2,-2.495147E-1,2.2243131E-2,-1.485432E-1,6.3984506E-2,-1.8323085E-1,1.3203396E-2,3.4512416E-1,-1.4625385E-1,1.5714929E-3,-3.122281E-2,7.4204266E-2,7.958655E-2,2.5117615E-1,-5.960417E-3,-1.3196103E-1,7.1077175E-2,3.964561E-1],"split_indices":[7,6,0,5,9,7,9,12,6,0,0,5,6,7,9,3,0,0,0,1,10,0,5,0,0,7,6,12,7,2,2,0,0,0,0,0,0,0,0,0,0,0,0,0,0,0,0,0,0,0,0],"split_type":[0,0,0,0,0,0,0,0,0,0,0,0,0,0,0,0,0,0,0,0,0,0,0,0,0,0,0,0,0,0,0,0,0,0,0,0,0,0,0,0,0,0,0,0,0,0,0,0,0,0,0],"sum_hessian":[3.88E2,3.87E2,1E0,5E1,3.37E2,8E0,4.2E1,2.28E2,1.09E2,2E0,6E0,2.9E1,1.3E1,1.5E1,2.13E2,6.4E1,4.5E1,1E0,1E0,3E0,2.6E1,2E0,1.1E1,9E0,6E0,1.08E2,1.05E2,4.4E1,2E1,8E0,3.7E1,2E0,1E0,2E0,2.4E1,1E0,1E1,4E0,5E0,9.1E1,1.7E1,4.1E1,6.4E1,2.6E1,1.8E1,1.8E1,2E0,3E0,5E0,1.8E1,1.9E1],"tree_param":{"num_deleted":"0","num_feature":"15","num_nodes":"51","size_leaf_vector":"1"}},{"base_weights":[3.454129E-2,2.9331253E0,-2.594198E-1,-4.3878355E0,3.1765082E-1,-5.7143793E0,-3.0953038E0,-1.6952213E0,7.218891E-1,-3.400347E-1,-3.622101E0,-3.892375E0,-2.0771396E0,-3.4200805E-1,-6.966806E0,2.5524855E-1,4.2690845E0,-2.4968517E-1,-1.2517582E0,-1.4770867E0,-4.4168096E0,-8.1722873E-1,-2.686287E0,1.7136185E0,-1.7478882E0,-3.302256E0,-5.718362E-1,9.0784013E-1,-8.690521E-1,4.9684534E0,-7.809458E-1,-7.368792E-2,-9.09394E-3,-8.385002E-2,-2.1933634E-2,-9.562583E-2,-2.3804085E-1,-9.385978E-2,9.102675E-3,-1.4234209E-1,-3.504619E-2,1.5680616E-1,-4.060768E-2,-1.0389596E-1,9.025104E-2,-3.2153353E-1,-5.938365E-2,2.8209759E-2,4.9601993E-1,-7.093431E-2,2.3008548E-1,3.0372995E-1,5.836142E-2,3.8386457E-2,-1.03465274E-1],"categories":[],"categories_nodes":[],"categories_segments":[],"categories_sizes":[],"default_left":[0,0,0,0,0,0,0,0,0,0,0,0,0,0,0,0,0,0,0,0,0,0,0,0,0,0,0,0,0,0,0,0,0,0,0,0,0,0,0,0,0,0,0,0,0,0,0,0,0,0,0,0,0,0,0],"id":3,"left_children":[1,-1,3,5,7,9,11,13,15,-1,17,19,21,23,25,27,29,-1,31,33,35,37,39,41,43,45,-1,47,49,51,53,-1,-1,-1,-1,-1,-1,-1,-1,-1,-1,-1,-1,-1,-1,-1,-1,-1,-1,-1,-1,-1,-1,-1,-1],"loss_changes":[6.908954E3,0E0,9.519663E2,6.6327576E1,2.8682538E2,2.764331E1,1.3826843E1,4.184984E2,4.8390295E2,0E0,2.6260757E1,1.1209259E1,8.549286E0,1.4171353E2,1.5879584E2,1.9155333E2,1.239624E2,0E0,9.195218E-1,9.471893E-2,3.712921E-1,6.696985E0,8.734207E-1,7.440545E1,3.7755226E1,4.5284805E1,0E0,5.0542786E2,2.951924E2,1.1905078E2,1.1564917E1,0E0,0E0,0E0,0E0,0E0,0E0,0E0,0E0,0E0,0E0,0E0,0E0,0E0,0E0,0E0,0E0,0E0,0E0,0E0,0E0,0E0,0E0,0E0,0E0],"parents":[2147483647,0,0,2,2,3,3,4,4,5,5,6,6,7,7,8,8,10,10,11,11,12,12,13,13,14,14,15,15,16,16,18,18,19,19,20,20,21,21,22,22,23,23,24,24,25,25,27,27,28,28,29,29,30,30],"right_children":[2,-1,4,6,8,10,12,14,16,-1,18,20,22,24,26,28,30,-1,32,34,36,38,40,42,44,46,-1,48,50,52,54,-1,-1,-1,-1,-1,-1,-1,-1,-1,-1,-1,-1,-1,-1,-1,-1,-1,-1,-1,-1,-1,-1,-1,-1],"split_conditions":[-9.98E0,2.9331253E0,-5.2E-1,-1.55E0,2E0,1.3E1,1.7E1,1.971E1,6.37E0,-3.400347E-1,1.7E1,8.68E0,1.609E1,1.8E1,8.44E2,6E0,9.3E-1,-2.4968517E-1,1E3,1E3,6E0,-1.14E0,4E0,1E0,1.84E1,3E1,-5.718362E-1,1.099E1,2.025E1,3.2E1,1.702E1,-7.368792E-2,-9.09394E-3,-8.385002E-2,-2.1933634E-2,-9.562583E-2,-2.3804085E-1,-9.385978E-2,9.102675E-3,-1.4234209E-1,-3.504619E-2,1.5680616E-1,-4.060768E-2,-1.0389596E-1,9.025104E-2,-3.2153353E-1,-5.938365E-2,2.8209759E-2,4.9601993E-1,-7.093431E-2,2.3008548E-1,3.0372995E-1,5.836142E-2,3.8386457E-2,-1.03465274E-1],"split_indices":[6,0,6,6,12,11,14,7,6,0,14,7,7,11,3,10,8,0,0,1,4,6,12,12,7,11,0,7,7,14,7,0,0,0,0,0,0,0,0,0,0,0,0,0,0,0,0,0,0,0,0,0,0,0,0],"split_type":[0,0,0,0,0,0,0,0,0,0,0,0,0,0,0,0,0,0,0,0,0,0,0,0,0,0,0,0,0,0,0,0,0,0,0,0,0,0,0,0,0,0,0,0,0,0,0,0,0,0,0,0,0,0,0],"sum_hessian":[3.99E2,1E0,3.98E2,4.8E1,3.5E2,2.2E1,2.6E1,5.8E1,2.92E2,1.3E1,9E0,1.3E1,1.3E1,4.7E1,1.1E1,2.59E2,3.3E1,5E0,4E0,3E0,1E1,5E0,8E0,1.9E1,2.8E1,7E0,4E0,1.64E2,9.5E1,2.9E1,4E0,3E0,1E0,2E0,1E0,2E0,8E0,2E0,3E0,7E0,1E0,1.2E1,7E0,2.6E1,2E0,2E0,5E0,1.59E2,5E0,8.7E1,8E0,2.2E1,7E0,2E0,2E0],"tree_param":{"num_deleted":"0","num_feature":"15","num_nodes":"55","size_leaf_vector":"1"}},{"base_weights":[6.9635674E-2,-2.0852067E-1,2.8597972E0,-1.0841652E0,1.923952E0,-6.8111534E0,-5.691768E-1,8.311034E-1,3.337079E0,-2.389696E0,-1.1819267E1,-5.7074156E0,-1.5584096E-1,1.2537724E-2,1.6733757E0,-6.7226656E-2,4.593066E0,3.503184E-1,-4.4884963E0,-6.6231066E-1,-1.7993374E-1,-3.3297105E0,-5.3502214E-1,9.8837334E-1,-1.2027866E0,8.56174E-1,-2.266534E0,9.838358E-1,2.7115684E0,2.9652817E0,-1.8800089E0,2.2277892E0,6.610426E0,-8.1694685E-2,3.0638978E-1,-3.9120886E-2,-2.7967265E-1,-2.3631433E-1,-5.292198E-2,8.271049E-3,2.547432E-1,-1.3874668E-1,-8.29281E-3,-1.9654653E-3,5.3073984E-2,-1.3630058E-1,4.6719074E-2,3.8336187E-3,5.6151837E-2,1.9517483E-1,5.661366E-2,-1.8859727E-2,2.3654091E-1,-1.7789146E-2,-1.4184313E-1,1.9963409E-1,1.2005894E-2,1.17147915E-1,3.6128435E-1],"categories":[],"categories_nodes":[],"categories_segments":[],"categories_sizes":[],"default_left":[0,0,0,0,0,0,0,0,0,0,0,0,0,0,0,0,0,0,0,0,0,0,0,0,0,0,0,0,0,0,0,0,0,0,0,0,0,0,0,0,0,0,0,0,0,0,0,0,0,0,0,0,0,0,0,0,0,0,0],"id":4,"left_children":[1,3,-1,5,7,9,11,13,15,17,19,21,23,25,27,29,31,33,35,-1,-1,37,-1,39,41,43,45,47,49,51,53,55,57,-1,-1,-1,-1,-1,-1,-1,-1,-1,-1,-1,-1,-1,-1,-1,-1,-1,-1,-1,-1,-1,-1,-1,-1,-1,-1],"loss_changes":[6.558625E3,7.6954126E2,0E0,8.5732837E2,1.8254663E2,5.0319165E2,5.704176E2,4.7551437E1,2.226485E2,8.20828E1,8.136499E1,2.0180957E2,3.0067136E2,7.115802E1,2.1672012E1,8.803391E1,1.6659473E2,9.025833E1,2.8384033E1,0E0,0E0,4.2577545E1,0E0,4.046908E2,2.130969E2,5.005619E0,1.7254616E1,2.692009E0,2.005146E1,3.7192024E1,1.3575302E1,6.569379E1,3.5582703E1,0E0,0E0,0E0,0E0,0E0,0E0,0E0,0E0,0E0,0E0,0E0,0E0,0E0,0E0,0E0,0E0,0E0,0E0,0E0,0E0,0E0,0E0,0E0,0E0,0E0,0E0],"parents":[2147483647,0,0,1,1,3,3,4,4,5,5,6,6,7,7,8,8,9,9,10,10,11,11,12,12,13,13,14,14,15,15,16,16,17,17,18,18,21,21,23,23,24,24,25,25,26,26,27,27,28,28,29,29,30,30,31,31,32,32],"right_children":[2,4,-1,6,8,10,12,14,16,18,20,22,24,26,28,30,32,34,36,-1,-1,38,-1,40,42,44,46,48,50,52,54,56,58,-1,-1,-1,-1,-1,-1,-1,-1,-1,-1,-1,-1,-1,-1,-1,-1,-1,-1,-1,-1,-1,-1,-1,-1,-1,-1],"split_conditions":[7.772E1,1.55E0,2.8597972E0,1E0,6.38E0,1.906E1,-1.93E0,8.8E-1,1E1,1.02E0,9.72E0,9.8E-1,1.16E0,1.457E1,6.7E-1,1.547E1,8.5E-1,1.626E1,6.5E-1,-6.6231066E-1,-1.7993374E-1,9.2E-1,-5.3502214E-1,1.163E1,8.3E-1,3E0,1E3,8E0,1E3,5.9E-1,1.24E0,8.57E0,6.92E0,-8.1694685E-2,3.0638978E-1,-3.9120886E-2,-2.7967265E-1,-2.3631433E-1,-5.292198E-2,8.271049E-3,2.547432E-1,-1.3874668E-1,-8.29281E-3,-1.9654653E-3,5.3073984E-2,-1.3630058E-1,4.6719074E-2,3.8336187E-3,5.6151837E-2,1.9517483E-1,5.661366E-2,-1.8859727E-2,2.3654091E-1,-1.7789146E-2,-1.4184313E-1,1.9963409E-1,1.2005894E-2,1.17147915E-1,3.6128435E-1],"split_indices":[7,9,0,12,6,7,6,8,4,2,6,8,9,7,2,7,2,7,8,0,0,8,0,7,6,12,0,4,1,2,2,6,6,0,0,0,0,0,0,0,0,0,0,0,0,0,0,0,0,0,0,0,0,0,0,0,0,0,0],"split_type":[0,0,0,0,0,0,0,0,0,0,0,0,0,0,0,0,0,0,0,0,0,0,0,0,0,0,0,0,0,0,0,0,0,0,0,0,0,0,0,0,0,0,0,0,0,0,0,0,0,0,0,0,0,0,0,0,0,0,0],"sum_hessian":[4.11E2,4.1E2,1E0,2.91E2,1.19E2,2.3E1,2.68E2,6.8E1,5.1E1,1.3E1,1E1,1.9E1,2.49E2,3.5E1,3.3E1,1.4E1,3.7E1,6E0,7E0,8E0,2E0,1.4E1,5E0,1.19E2,1.3E2,2.6E1,9E0,2.1E1,1.2E1,5E0,9E0,1.8E1,1.9E1,5E0,1E0,2E0,5E0,8E0,6E0,1E2,1.9E1,5.1E1,7.9E1,5E0,2.1E1,8E0,1E0,3E0,1.8E1,6E0,6E0,2E0,3E0,4E0,5E0,9E0,9E0,3E0,1.6E1],"tree_param":{"num_deleted":"0","num_feature":"15","num_nodes":"59","size_leaf_vector":"1"}},{"base_weights":[1.2979843E-1,-1.3994077E-1,2.7883022E0,-5.2373157E0,2.8743076E-1,-8.448833E0,-3.3934965E0,-3.676495E-1,1.7561498E0,-1.4138836E-1,-4.6918818E-1,-3.5882626E0,1.7414808E-2,7.8233254E-1,-1.4641937E0,8.6451346E-1,3.4096005E0,-1.0352366E0,-3.9562538E0,9.277005E-2,3.5370142E0,-1.0925596E0,-6.586969E0,5.454393E-1,2.9796739E0,8.3936594E-2,5.13091E0,-6.398674E-2,-7.54354E-3,-2.1144202E-1,-5.9185393E-2,1.4245421E-2,-9.941811E-2,2.9955688E-1,-8.821168E-2,-1.0854522E-1,1.6632503E-2,-4.8115334E-1,1.346458E-1,-8.385136E-2,3.9186116E-2,5.967159E-2,2.6803395E-1,-7.803636E-2,1.8427049E-1,1.0581666E-1,3.8894966E-1],"categories":[],"categories_nodes":[],"categories_segments":[],"categories_sizes":[],"default_left":[0,0,0,0,0,0,0,0,0,0,0,0,0,0,0,0,0,0,0,0,0,0,0,0,0,0,0,0,0,0,0,0,0,0,0,0,0,0,0,0,0,0,0,0,0,0,0],"id":5,"left_children":[1,3,-1,5,7,9,11,13,15,-1,-1,17,-1,19,21,23,25,27,29,31,33,35,37,39,41,43,45,-1,-1,-1,-1,-1,-1,-1,-1,-1,-1,-1,-1,-1,-1,-1,-1,-1,-1,-1,-1],"loss_changes":[6.2208164E3,9.012147E2,0E0,1.6081555E2,3.6817883E2,3.1273193E1,1.7282822E1,3.3531207E2,1.71017E2,0E0,0E0,1.5633636E1,0E0,2.4661017E2,2.5171991E2,5.1016422E1,2.3427362E2,6.718292E-1,8.597961E0,4.255236E1,3.488276E2,1.9744121E2,2.7948587E2,3.7855057E1,3.6132904E1,9.460011E1,1.9907404E2,0E0,0E0,0E0,0E0,0E0,0E0,0E0,0E0,0E0,0E0,0E0,0E0,0E0,0E0,0E0,0E0,0E0,0E0,0E0,0E0],"parents":[2147483647,0,0,1,1,3,3,4,4,5,5,6,6,7,7,8,8,11,11,13,13,14,14,15,15,16,16,17,17,18,18,19,19,20,20,21,21,22,22,23,23,24,24,25,25,26,26],"right_children":[2,4,-1,6,8,10,12,14,16,-1,-1,18,-1,20,22,24,26,28,30,32,34,36,38,40,42,44,46,-1,-1,-1,-1,-1,-1,-1,-1,-1,-1,-1,-1,-1,-1,-1,-1,-1,-1,-1,-1],"split_conditions":[7.772E1,-1.16E0,2.7883022E0,2.22E0,1.56E0,1.551E1,1.28E0,1.24E0,7.38E0,-1.4138836E-1,-4.6918818E-1,8.3E1,1.7414808E-2,1.141E1,1.884E1,1.4648E4,1.4E1,6.6E-1,3E0,8.4E-1,1.412E3,2.13E0,2.5E0,1.32E0,1.644E1,4.11E0,8.4E-1,-6.398674E-2,-7.54354E-3,-2.1144202E-1,-5.9185393E-2,1.4245421E-2,-9.941811E-2,2.9955688E-1,-8.821168E-2,-1.0854522E-1,1.6632503E-2,-4.8115334E-1,1.346458E-1,-8.385136E-2,3.9186116E-2,5.967159E-2,2.6803395E-1,-7.803636E-2,1.8427049E-1,1.0581666E-1,3.8894966E-1],"split_indices":[7,6,0,5,9,7,9,9,6,0,0,3,0,7,7,3,14,2,13,2,3,6,5,6,7,5,2,0,0,0,0,0,0,0,0,0,0,0,0,0,0,0,0,0,0,0,0],"split_type":[0,0,0,0,0,0,0,0,0,0,0,0,0,0,0,0,0,0,0,0,0,0,0,0,0,0,0,0,0,0,0,0,0,0,0,0,0,0,0,0,0,0,0,0,0,0,0],"sum_hessian":[4.13E2,4.12E2,1E0,3.1E1,3.81E2,1E1,2.1E1,2.64E2,1.17E2,2E0,8E0,2E1,1E0,1.29E2,1.35E2,7.7E1,4E1,3E0,1.7E1,1.04E2,2.5E1,1.27E2,8E0,6.8E1,9E0,1.4E1,2.6E1,2E0,1E0,1.5E1,2E0,9.6E1,8E0,1.7E1,8E0,7.2E1,5.5E1,6E0,2E0,6E0,6.2E1,6E0,3E0,1E1,4E0,1.3E1,1.3E1],"tree_param":{"num_deleted":"0","num_feature":"15","num_nodes":"47","size_leaf_vector":"1"}},{"base_weights":[2.1366207E-1,2.7185948E0,-5.834326E-2,-3.5252776E0,4.3709978E-1,2.550365E-1,-3.8054152E0,1.7220031E0,-1.2060164E-1,-5.1150737E0,-2.3435402E0,7.338558E-1,5.6867013E0,-2.7783792E0,2.917329E-1,-6.7597475E0,-3.9434774E0,-3.075079E0,-7.013513E-1,5.021155E-1,2.2682567E0,6.4686745E-1,4.2425623E0,-1.057052E1,-6.5529144E-1,-2.5528412E-2,2.5745559E0,-3.61541E-1,-7.477915E-2,-2.3611613E-1,-1.0781123E-1,-1.13923095E-1,-1.9438045E-1,-1.41424E-1,-4.095009E-3,-1.5359518E-1,3.201114E-2,6.41781E-2,1.596589E-1,-8.066032E-2,2.7206722E-1,-2.212647E-1,-6.071776E-1,1.9525199E-1,-6.940215E-2,5.2212287E-2,-2.3788383E-2,3.3281866E-1,8.7636866E-2],"categories":[],"categories_nodes":[],"categories_segments":[],"categories_sizes":[],"default_left":[0,0,0,0,0,0,0,0,0,0,0,0,0,0,0,0,0,0,0,0,0,0,0,0,0,0,0,0,0,0,0,0,0,0,0,0,0,0,0,0,0,0,0,0,0,0,0,0,0],"id":6,"left_children":[1,-1,3,5,7,-1,9,11,13,15,17,19,21,23,25,27,29,31,33,35,37,-1,39,41,43,45,47,-1,-1,-1,-1,-1,-1,-1,-1,-1,-1,-1,-1,-1,-1,-1,-1,-1,-1,-1,-1,-1,-1],"loss_changes":[5.8957036E3,0E0,6.868907E2,1.4023383E2,2.5101503E2,0E0,8.182587E1,4.1110364E2,2.6930444E2,2.1515442E1,2.787642E1,2.9441174E1,1.6500226E2,5.3900543E2,1.5433125E2,1.1503937E1,1.3481476E1,2.1459198E0,1.1627218E1,3.9480164E1,5.919773E0,0E0,1.4215402E2,1.3927673E1,9.564327E1,9.104783E1,7.5550476E1,0E0,0E0,0E0,0E0,0E0,0E0,0E0,0E0,0E0,0E0,0E0,0E0,0E0,0E0,0E0,0E0,0E0,0E0,0E0,0E0,0E0,0E0],"parents":[2147483647,0,0,2,2,3,3,4,4,6,6,7,7,8,8,9,9,10,10,11,11,12,12,13,13,14,14,15,15,16,16,17,17,18,18,19,19,20,20,22,22,23,23,24,24,25,25,26,26],"right_children":[2,-1,4,6,8,-1,10,12,14,16,18,20,22,24,26,28,30,32,34,36,38,-1,40,42,44,46,48,-1,-1,-1,-1,-1,-1,-1,-1,-1,-1,-1,-1,-1,-1,-1,-1,-1,-1,-1,-1,-1,-1],"split_conditions":[-9.98E0,2.7185948E0,-5.7E-1,1.1E-1,7.2E-1,2.550365E-1,2.62E0,9.6E-1,1E0,9.4E-1,1.9E1,3.92E0,4E0,2.45E0,6.38E0,1.21E0,9.2E-1,7.2E-1,1E0,1E0,5.5E0,6.4686745E-1,2.45E0,1.1E0,3E2,1.08E0,3E2,-3.61541E-1,-7.477915E-2,-2.3611613E-1,-1.0781123E-1,-1.13923095E-1,-1.9438045E-1,-1.41424E-1,-4.095009E-3,-1.5359518E-1,3.201114E-2,6.41781E-2,1.596589E-1,-8.066032E-2,2.7206722E-1,-2.212647E-1,-6.071776E-1,1.9525199E-1,-6.940215E-2,5.2212287E-2,-2.3788383E-2,3.3281866E-1,8.7636866E-2],"split_indices":[6,0,6,2,8,0,5,2,12,2,14,5,10,5,6,9,8,2,11,12,6,0,5,9,1,9,1,0,0,0,0,0,0,0,0,0,0,0,0,0,0,0,0,0,0,0,0,0,0],"split_type":[0,0,0,0,0,0,0,0,0,0,0,0,0,0,0,0,0,0,0,0,0,0,0,0,0,0,0,0,0,0,0,0,0,0,0,0,0,0,0,0,0,0,0,0,0,0,0,0,0],"sum_hessian":[3.99E2,1E0,3.98E2,4.9E1,3.49E2,1E0,4.8E1,1.05E2,2.44E2,2.4E1,2.4E1,8.5E1,2E1,3.2E1,2.12E2,8E0,1.6E1,1.6E1,8E0,7.5E1,1E1,2E0,1.8E1,6E0,2.6E1,1.87E2,2.5E1,7E0,1E0,1E1,6E0,1E1,6E0,1E0,7E0,2E0,7.3E1,6E0,4E0,3E0,1.5E1,2E0,4E0,3E0,2.3E1,5.5E1,1.32E2,3E0,2.2E1],"tree_param":{"num_deleted":"0","num_feature":"15","num_nodes":"49","size_leaf_vector":"1"}},{"base_weights":[1.7427564E-1,-8.6440906E-2,2.6506298E0,-8.2989854E-1,1.8020467E0,7.2998166E-1,-2.1944735E0,1.1922475E0,3.4900694E0,2.4985579E-1,7.5306764E0,-4.9779496E0,-7.9509026E-1,1.0237917E0,3.8777485E-1,2.5581747E-1,5.6320252E0,-7.883674E-1,4.590322E-1,-3.4188297E-2,4.321476E-1,-3.5749E0,-9.882507E0,-1.245639E0,1.7889397E0,-1.3798841E0,1.2571969E0,7.3413163E-1,-1.5832735E0,5.1025044E-2,6.4862967E0,-5.370598E-2,7.6329196E-3,4.458069E-2,2.8171593E-3,-2.4203038E-1,1.2047166E-1,-2.7041528E-1,-7.084944E-1,-1.0639479E-1,-6.966725E-3,1.4566623E-1,-6.3368574E-2,-8.9208804E-2,-5.5669546E-3,-5.7279408E-2,7.5511314E-2,-1.1935758E-2,5.643943E-2,-1.3764559E-1,1.8900072E-2,1.7027307E-2,3.450477E-1],"categories":[],"categories_nodes":[],"categories_segments":[],"categories_sizes":[],"default_left":[0,0,0,0,0,0,0,0,0,0,0,0,0,0,0,0,0,0,0,0,0,0,0,0,0,0,0,0,0,0,0,0,0,0,0,0,0,0,0,0,0,0,0,0,0,0,0,0,0,0,0,0,0],"id":7,"left_children":[1,3,-1,5,7,9,11,13,15,17,19,21,23,25,-1,27,29,31,33,-1,-1,35,37,39,41,43,45,47,49,-1,51,-1,-1,-1,-1,-1,-1,-1,-1,-1,-1,-1,-1,-1,-1,-1,-1,-1,-1,-1,-1,-1,-1],"loss_changes":[5.6113433E3,5.7152374E2,0E0,6.2314526E2,1.1421478E2,4.4544937E2,6.036855E2,8.7143105E1,2.0638803E2,2.8377048E1,8.814026E1,3.225006E2,1.2447268E2,4.9422386E1,0E0,1.2597954E1,6.4291626E1,6.0797777E0,1.8762917E1,0E0,0E0,3.2978857E2,1.3437366E2,8.754753E1,5.8675777E1,3.9042501E0,4.915216E1,4.4928074E0,7.922552E0,0E0,3.587555E1,0E0,0E0,0E0,0E0,0E0,0E0,0E0,0E0,0E0,0E0,0E0,0E0,0E0,0E0,0E0,0E0,0E0,0E0,0E0,0E0,0E0,0E0],"parents":[2147483647,0,0,1,1,3,3,4,4,5,5,6,6,7,7,8,8,9,9,10,10,11,11,12,12,13,13,15,15,16,16,17,17,18,18,21,21,22,22,23,23,24,24,25,25,26,26,27,27,28,28,30,30],"right_children":[2,4,-1,6,8,10,12,14,16,18,20,22,24,26,-1,28,30,32,34,-1,-1,36,38,40,42,44,46,48,50,-1,52,-1,-1,-1,-1,-1,-1,-1,-1,-1,-1,-1,-1,-1,-1,-1,-1,-1,-1,-1,-1,-1,-1],"split_conditions":[7.772E1,3.5E0,2.6506298E0,6E0,2.7E1,1.099E1,2.62E0,1.79E0,7.8E-1,6E1,4.9E1,5.929E3,1.763E1,8E0,3.8777485E-1,1.799E1,1.144E1,2.84E0,1.79E0,-3.4188297E-2,4.321476E-1,2.136E1,1.671E1,1.44E0,3.2E1,3.87E0,3.57E0,1E1,1E3,5.1025044E-2,9.1E1,-5.370598E-2,7.6329196E-3,4.458069E-2,2.8171593E-3,-2.4203038E-1,1.2047166E-1,-2.7041528E-1,-7.084944E-1,-1.0639479E-1,-6.966725E-3,1.4566623E-1,-6.3368574E-2,-8.9208804E-2,-5.5669546E-3,-5.7279408E-2,7.5511314E-2,-1.1935758E-2,5.643943E-2,-1.3764559E-1,1.8900072E-2,1.7027307E-2,3.450477E-1],"split_indices":[7,5,0,10,14,7,5,2,2,3,3,3,7,4,0,7,7,5,7,0,0,7,7,9,14,5,5,4,0,0,3,0,0,0,0,0,0,0,0,0,0,0,0,0,0,0,0,0,0,0,0,0,0],"split_type":[0,0,0,0,0,0,0,0,0,0,0,0,0,0,0,0,0,0,0,0,0,0,0,0,0,0,0,0,0,0,0,0,0,0,0,0,0,0,0,0,0,0,0,0,0,0,0,0,0,0,0,0,0],"sum_hessian":[4.06E2,4.05E2,1E0,2.91E2,1.14E2,1.36E2,1.55E2,8.5E1,2.9E1,1.28E2,8E0,5.1E1,1.04E2,8.4E1,1E0,1.2E1,1.7E1,2.1E1,1.07E2,1E0,7E0,4.1E1,1E1,8.9E1,1.5E1,7E0,7.7E1,1E1,2E0,3E0,1.4E1,1.6E1,5E0,5.1E1,5.6E1,3.4E1,7E0,6E0,4E0,4.9E1,4E1,1.1E1,4E0,5E0,2E0,7E0,7E1,3E0,7E0,1E0,1E0,1E0,1.3E1],"tree_param":{"num_deleted":"0","num_feature":"15","num_nodes":"53","size_leaf_vector":"1"}},{"base_weights":[-1.3323304E-1,-1.4686687E0,6.0354036E-1,-1.3125129E-1,-2.981167E0,1.0949971E-1,2.4277709E0,3.1541984E0,-5.5179125E-1,-7.23492E0,-7.894826E-1,8.022497E-1,-1.0089285E0,4.5790524E0,1.3726212E0,1.3208899E-1,2.7727342E-1,-1.1519611E0,1.9311712E0,-8.291227E0,-1.446513E-1,-2.4208221E0,2.4205806E0,4.6316242E-1,4.3976264E0,-1.8684891E0,1.3421173E0,9.69811E-1,8.080538E0,3.1539743E0,2.4890454E-1,-2.5983274E-2,3.699069E-2,-8.618587E-4,-3.4541142E0,7.406865E-1,3.0246934E-1,-6.380323E0,-6.3739383E-1,-8.239154E-2,9.056854E-1,-2.8408275E0,-8.5820353E-1,5.0762663E0,-2.0898233E-1,6.346165E-1,-1.118521E0,1.1742215E0,3.4440467E-1,-4.8181477E0,-1.3787631E0,4.017933E0,8.7565705E-2,-1.6309896E-2,1.21838E0,6.29211E-1,4.9960256E0,8.702947E-1,3.6523695E0,-2.3862012E-1,1.434032E-1,2.5983198E-2,-3.5252597E-2,-9.763049E-2,-2.4527481E-1,9.305333E-2,8.022062E-3,-2.0905983E-1,-4.305229E-1,1.8498898E-3,6.607652E-2,-6.3076906E-2,-1.7084575E-1,1.2368777E-2,-1.0128134E-1,-1.0525426E-2,3.4368047E-1,1.8133026E-1,-9.114755E-2,1.42899025E-2,4.8277717E-2,-7.08821E-2,5.429522E-2,8.0466345E-2,2.7716855E-2,-2.5642294E-1,-6.6149294E-2,-7.898453E-2,2.2171359E-1,-5.7297397E-2,2.5347856E-1,-7.594817E-2,6.0168978E-2,-6.3332915E-3,5.110049E-3,6.817567E-2,5.061138E-3,6.606095E-2,3.7109128E-1,5.4597855E-3,7.8839794E-2,2.1586074E-2,1.9529542E-1,-1.6130897E-1,1.107224E-2],"categories":[],"categories_nodes":[],"categories_segments":[],"categories_sizes":[],"default_left":[0,0,0,0,0,0,0,0,0,0,0,0,0,0,0,0,0,0,0,0,0,0,0,0,0,0,0,0,0,0,0,0,0,0,0,0,0,0,0,0,0,0,0,0,0,0,0,0,0,0,0,0,0,0,0,0,0,0,0,0,0,0,0,0,0,0,0,0,0,0,0,0,0,0,0,0,0,0,0,0,0,0,0,0,0,0,0,0,0,0,0,0,0,0,0,0,0,0,0,0,0,0,0,0,0],"id":8,"left_children":[1,3,5,7,9,11,13,15,17,19,21,23,25,27,29,31,-1,33,35,37,39,41,43,45,47,49,51,53,55,57,59,-1,-1,61,63,65,-1,67,-1,-1,69,71,73,75,77,79,81,83,-1,85,87,89,91,93,95,-1,97,99,101,103,-1,-1,-1,-1,-1,-1,-1,-1,-1,-1,-1,-1,-1,-1,-1,-1,-1,-1,-1,-1,-1,-1,-1,-1,-1,-1,-1,-1,-1,-1,-1,-1,-1,-1,-1,-1,-1,-1,-1,-1,-1,-1,-1,-1,-1],"loss_changes":[4.0133917E2,2.9292075E2,2.3676135E2,1.0951017E2,6.282443E2,1.6196597E2,1.20830475E2,6.430761E1,1.0653858E2,1.7105933E2,2.4674812E2,1.552331E2,1.6417703E2,2.1964206E2,7.728268E1,2.3648925E0,0E0,1.5104742E2,6.415671E1,8.898901E1,7.8077946E0,1.7907532E1,1.1279353E2,3.2980972E1,8.021747E1,7.858391E1,7.350103E1,2.4710627E0,6.215393E1,1.3893982E1,3.2607E1,0E0,0E0,1.4661804E1,3.1827347E1,7.5025516E0,0E0,4.246759E1,0E0,0E0,1.0348244E0,1.7524857E1,1.0826517E1,7.746414E1,6.2325783E1,1.2191265E1,9.452102E0,7.261801E-1,0E0,1.8918152E0,6.774072E1,4.3823196E1,3.050929E1,5.218051E-2,1.1590776E0,0E0,5.259456E1,1.9786894E0,8.112457E0,3.0952785E1,0E0,0E0,0E0,0E0,0E0,0E0,0E0,0E0,0E0,0E0,0E0,0E0,0E0,0E0,0E0,0E0,0E0,0E0,0E0,0E0,0E0,0E0,0E0,0E0,0E0,0E0,0E0,0E0,0E0,0E0,0E0,0E0,0E0,0E0,0E0,0E0,0E0,0E0,0E0,0E0,0E0,0E0,0E0,0E0,0E0],"parents":[2147483647,0,0,1,1,2,2,3,3,4,4,5,5,6,6,7,7,8,8,9,9,10,10,11,11,12,12,13,13,14,14,15,15,17,17,18,18,19,19,20,20,21,21,22,22,23,23,24,24,25,25,26,26,27,27,28,28,29,29,30,30,33,33,34,34,35,35,37,37,40,40,41,41,42,42,43,43,44,44,45,45,46,46,47,47,49,49,50,50,51,51,52,52,53,53,54,54,56,56,57,57,58,58,59,59],"right_children":[2,4,6,8,10,12,14,16,18,20,22,24,26,28,30,32,-1,34,36,38,40,42,44,46,48,50,52,54,56,58,60,-1,-1,62,64,66,-1,68,-1,-1,70,72,74,76,78,80,82,84,-1,86,88,90,92,94,96,-1,98,100,102,104,-1,-1,-1,-1,-1,-1,-1,-1,-1,-1,-1,-1,-1,-1,-1,-1,-1,-1,-1,-1,-1,-1,-1,-1,-1,-1,-1,-1,-1,-1,-1,-1,-1,-1,-1,-1,-1,-1,-1,-1,-1,-1,-1,-1,-1],"split_conditions":[3E0,1.496E1,2.7E1,2E-1,2.5E0,1.489E1,7.2E-1,2.91E0,3.23E0,2.341E1,1.783E1,1.282E1,1.686E1,8.9E-1,3.2E1,4.51E2,2.7727342E-1,6.59E0,1.31E0,4.286E3,1E3,3.42E0,8.6E-1,1.099E1,8.5E-1,2.64E0,3E2,-5.2E-1,1.01E0,2.19E0,1.4648E4,-2.5983274E-2,3.699069E-2,1.79E0,1.252E1,1E1,3.0246934E-1,1.906E1,-6.3739383E-1,-8.239154E-2,5E3,1.589E1,1.69E0,3E2,3E2,2.077E3,3.2E1,7.7E-1,3.4440467E-1,1.656E1,3.99E0,2.1E-1,5.8E-1,3E1,1.344E1,6.29211E-1,1.641E1,1.09E0,1.41E2,8.2E-1,1.434032E-1,2.5983198E-2,-3.5252597E-2,-9.763049E-2,-2.4527481E-1,9.305333E-2,8.022062E-3,-2.0905983E-1,-4.305229E-1,1.8498898E-3,6.607652E-2,-6.3076906E-2,-1.7084575E-1,1.2368777E-2,-1.0128134E-1,-1.0525426E-2,3.4368047E-1,1.8133026E-1,-9.114755E-2,1.42899025E-2,4.8277717E-2,-7.08821E-2,5.429522E-2,8.0466345E-2,2.7716855E-2,-2.5642294E-1,-6.6149294E-2,-7.898453E-2,2.2171359E-1,-5.7297397E-2,2.5347856E-1,-7.594817E-2,6.0168978E-2,-6.3332915E-3,5.110049E-3,6.817567E-2,5.061138E-3,6.606095E-2,3.7109128E-1,5.4597855E-3,7.8839794E-2,2.1586074E-2,1.9529542E-1,-1.6130897E-1,1.107224E-2],"split_indices":[12,7,14,2,5,7,8,7,5,7,7,7,7,2,14,3,0,7,2,3,1,5,8,7,8,5,1,8,2,5,3,0,0,7,7,11,0,7,0,0,1,7,2,1,1,3,11,8,0,7,5,2,2,3,7,0,7,2,3,8,0,0,0,0,0,0,0,0,0,0,0,0,0,0,0,0,0,0,0,0,0,0,0,0,0,0,0,0,0,0,0,0,0,0,0,0,0,0,0,0,0,0,0,0,0],"split_type":[0,0,0,0,0,0,0,0,0,0,0,0,0,0,0,0,0,0,0,0,0,0,0,0,0,0,0,0,0,0,0,0,0,0,0,0,0,0,0,0,0,0,0,0,0,0,0,0,0,0,0,0,0,0,0,0,0,0,0,0,0,0,0,0,0,0,0,0,0,0,0,0,0,0,0,0,0,0,0,0,0,0,0,0,0,0,0,0,0,0,0,0,0,0,0,0,0,0,0,0,0,0,0,0,0],"sum_hessian":[4.06E2,1.44E2,2.62E2,7.7E1,6.7E1,2.07E2,5.5E1,8E0,6.9E1,2.2E1,4.5E1,1.28E2,7.9E1,1.7E1,3.8E1,4E0,4E0,5.6E1,1.3E1,1.9E1,3E0,3E1,1.5E1,1.18E2,1E1,5.8E1,2.1E1,9E0,8E0,1.4E1,2.4E1,2E0,2E0,3.8E1,1.8E1,1.1E1,2E0,1.5E1,4E0,1E0,2E0,2.3E1,7E0,7E0,8E0,1.07E2,1.1E1,5E0,5E0,7E0,5.1E1,6E0,1.5E1,2E0,7E0,2E0,6E0,3E0,1.1E1,2.1E1,3E0,2.2E1,1.6E1,1E1,8E0,3E0,8E0,9E0,6E0,1E0,1E0,7E0,1.6E1,4E0,3E0,2E0,5E0,2E0,6E0,5.3E1,5.4E1,1E1,1E0,2E0,3E0,6E0,1E0,5E1,1E0,1E0,5E0,6E0,9E0,1E0,1E0,6E0,1E0,3E0,3E0,2E0,1E0,1E0,1E1,2E0,1.9E1],"tree_param":{"num_deleted":"0","num_feature":"15","num_nodes":"105","size_leaf_vector":"1"}},{"base_weights":[-1.8076907E-1,-4.4812226E0,1.6101499E-1,-8.39779E0,-2.9241028E0,-5.3508747E-1,1.5912175E0,-2.474505E-1,-5.3046584E-1,-1.446229E0,-3.4802833E0,-4.9911313E0,-7.1811E-2,-7.9400086E-1,2.0303903E0,-1.6871391E-1,-6.8875355E-1,-1.999017E-1,-1.5416247E0,-8.595375E0,4.982764E-2,8.9571685E-1,-8.787885E-1,5.787894E-1,-1.5777179E0,9.167084E-1,3.9698637E0,-1.3828057E-1,-5.3351905E-2,2.4609858E-2,-1.0865648E-1,-1.570111E-1,-1.0463414E1,-1.7680963E0,2.7434954E-1,1.6860133E-1,5.2956443E0,-2.3844337E0,-5.188694E-2,-4.0225697E-1,9.728477E-1,-1.8611554E0,-1.2541135E-2,7.287242E-1,3.7422752E0,4.5767627E0,-2.9724756E-2,-1.8896628E-2,3.379047E-3,-1.0512451E-1,-5.579398E-1,1.0358775E-2,-1.6948746E-1,3.389142E-2,-1.8916046E-2,4.4501066E-1,1.301669E-1,-3.1964283E-2,-1.3445425E-1,3.0874679E-2,-4.714765E-2,2.0326138E-3,-3.2201886E-2,6.2082555E-2,1.4508033E-2,-1.13413475E-1,-2.9081915E-2,-6.1358693E-3,5.195284E-3,4.6655122E-2,-5.4899808E-2,2.1838515E-1,4.664979E-2,2.7398995E-1,5.349001E-2,8.789478E-2,-1.2016552E-1],"categories":[],"categories_nodes":[],"categories_segments":[],"categories_sizes":[],"default_left":[0,0,0,0,0,0,0,0,0,0,0,0,0,0,0,0,0,0,0,0,0,0,0,0,0,0,0,0,0,0,0,0,0,0,0,0,0,0,0,0,0,0,0,0,0,0,0,0,0,0,0,0,0,0,0,0,0,0,0,0,0,0,0,0,0,0,0,0,0,0,0,0,0,0,0,0,0],"id":9,"left_children":[1,3,5,7,9,11,13,-1,-1,15,17,19,21,23,25,-1,27,-1,29,31,33,35,37,39,41,43,45,47,-1,-1,-1,-1,49,51,-1,53,55,57,59,61,63,65,67,69,71,73,75,-1,-1,-1,-1,-1,-1,-1,-1,-1,-1,-1,-1,-1,-1,-1,-1,-1,-1,-1,-1,-1,-1,-1,-1,-1,-1,-1,-1,-1,-1],"loss_changes":[5.989409E2,1.58401E2,3.77176E2,8.510925E0,1.3871887E1,5.260586E2,1.3150497E2,0E0,0E0,9.359552E0,9.896423E0,4.364807E2,1.8192651E2,2.2430748E1,2.2315622E2,0E0,1.3100975E0,0E0,7.4914494E0,1.0980859E2,1.1842937E2,3.382282E2,1.5799387E2,3.4840508E0,5.743847E0,3.3391933E1,9.2375244E1,2.2288151E-1,0E0,0E0,0E0,0E0,3.4679077E1,2.9531113E1,0E0,2.5879139E1,1.22398834E2,2.2205704E1,5.008864E1,3.4744236E-1,7.407732E-1,4.410694E0,5.124005E-2,2.5291767E1,2.9529572E0,9.864581E1,2.9683187E1,0E0,0E0,0E0,0E0,0E0,0E0,0E0,0E0,0E0,0E0,0E0,0E0,0E0,0E0,0E0,0E0,0E0,0E0,0E0,0E0,0E0,0E0,0E0,0E0,0E0,0E0,0E0,0E0,0E0,0E0],"parents":[2147483647,0,0,1,1,2,2,3,3,4,4,5,5,6,6,9,9,10,10,11,11,12,12,13,13,14,14,16,16,18,18,19,19,20,20,21,21,22,22,23,23,24,24,25,25,26,26,27,27,32,32,33,33,35,35,36,36,37,37,38,38,39,39,40,40,41,41,42,42,43,43,44,44,45,45,46,46],"right_children":[2,4,6,8,10,12,14,-1,-1,16,18,20,22,24,26,-1,28,-1,30,32,34,36,38,40,42,44,46,48,-1,-1,-1,-1,50,52,-1,54,56,58,60,62,64,66,68,70,72,74,76,-1,-1,-1,-1,-1,-1,-1,-1,-1,-1,-1,-1,-1,-1,-1,-1,-1,-1,-1,-1,-1,-1,-1,-1,-1,-1,-1,-1,-1,-1],"split_conditions":[-1.23E0,2E0,1.55E0,1.662E1,1.68E2,1E0,2.31E2,-2.474505E-1,-5.3046584E-1,1.74E0,2.6E0,2.5E0,2.36E0,2E1,6.54E0,-1.6871391E-1,-2.63E0,-1.999017E-1,1E3,5E-1,1.626E1,1.099E1,9.2E-1,2.31E0,1E3,2.6561E4,9.3E-1,1E3,-5.3351905E-2,2.4609858E-2,-1.0865648E-1,-1.570111E-1,1.906E1,3.3E1,2.7434954E-1,7.1E-1,1.1E0,3E2,8.9E-1,1.5E2,1E1,1.372E1,1.51E2,1.719E1,3E2,3.2E1,7.11E0,-1.8896628E-2,3.379047E-3,-1.0512451E-1,-5.579398E-1,1.0358775E-2,-1.6948746E-1,3.389142E-2,-1.8916046E-2,4.4501066E-1,1.301669E-1,-3.1964283E-2,-1.3445425E-1,3.0874679E-2,-4.714765E-2,2.0326138E-3,-3.2201886E-2,6.2082555E-2,1.4508033E-2,-1.13413475E-1,-2.9081915E-2,-6.1358693E-3,5.195284E-3,4.6655122E-2,-5.4899808E-2,2.1838515E-1,4.664979E-2,2.7398995E-1,5.349001E-2,8.789478E-2,-1.2016552E-1],"split_indices":[6,11,9,7,3,12,3,0,0,5,5,5,5,11,6,0,6,0,1,8,7,7,6,6,0,3,8,1,0,0,0,0,7,11,0,8,5,1,8,0,11,6,3,7,1,14,6,0,0,0,0,0,0,0,0,0,0,0,0,0,0,0,0,0,0,0,0,0,0,0,0,0,0,0,0,0,0],"split_type":[0,0,0,0,0,0,0,0,0,0,0,0,0,0,0,0,0,0,0,0,0,0,0,0,0,0,0,0,0,0,0,0,0,0,0,0,0,0,0,0,0,0,0,0,0,0,0,0,0,0,0,0,0,0,0,0,0,0,0,0,0,0,0,0,0,0,0,0,0,0,0,0,0,0,0,0,0],"sum_hessian":[4.06E2,2.9E1,3.77E2,7E0,2.2E1,2.54E2,1.23E2,4E0,3E0,7E0,1.5E1,2.3E1,2.31E2,1.9E1,1.04E2,1E0,6E0,1.1E1,4E0,1.3E1,1E1,1.05E2,1.26E2,7E0,1.2E1,6.7E1,3.7E1,3E0,3E0,1E0,3E0,4E0,9E0,8E0,2E0,9.1E1,1.4E1,4.4E1,8.2E1,2E0,5E0,1E1,2E0,6.4E1,3E0,3.2E1,5E0,1E0,2E0,1E0,8E0,4E0,4E0,4.7E1,4.4E1,5E0,9E0,7E0,3.7E1,4.7E1,3.5E1,1E0,1E0,3E0,2E0,7E0,3E0,1E0,1E0,5.8E1,6E0,2E0,1E0,2.5E1,7E0,3E0,2E0],"tree_param":{"num_deleted":"0","num_feature":"15","num_nodes":"77","size_leaf_vector":"1"}},{"base_weights":[2.3539573E-2,-2.2516131E-1,2.5870779E0,-4.24179E0,7.5630926E-2,-7.825932E0,-2.745657E0,2.6998582E-1,-3.020435E0,-1.0909889E-1,-4.16025E-1,-3.1136038E0,-8.7191683E-1,-7.946939E-2,2.4299438E0,-7.816021E0,2.0268538E0,-1.8170834E0,-3.7734728E0,-6.649211E-2,2.3994613E-2,5.347862E-1,-8.6549836E-1,-1.7171539E0,3.0210493E0,-5.193898E-1,-2.1379764E0,-1.482315E-1,4.2266445E0,-1.7909423E-1,-3.1591784E-2,-1.9631274E-1,-5.6141336E-2,1.581584E-2,2.3010051E-1,-9.2741884E-2,1.126782E-2,-1.0231706E-1,6.4492463E-3,4.6277214E-2,2.3302157E-1,-1.3059978E-1,-6.047481E-3,-8.326655E-2,1.9108677E-2,2.7739882E-1,1.0894921E-1],"categories":[],"categories_nodes":[],"categories_segments":[],"categories_sizes":[],"default_left":[0,0,0,0,0,0,0,0,0,0,0,0,0,0,0,0,0,0,0,0,0,0,0,0,0,0,0,0,0,0,0,0,0,0,0,0,0,0,0,0,0,0,0,0,0,0,0],"id":10,"left_children":[1,3,-1,5,7,9,11,13,15,-1,-1,17,19,21,23,25,27,29,31,-1,-1,33,35,37,39,-1,41,43,45,-1,-1,-1,-1,-1,-1,-1,-1,-1,-1,-1,-1,-1,-1,-1,-1,-1,-1],"loss_changes":[5.3752363E3,5.029198E2,0E0,1.3402094E2,2.3428886E2,4.175415E0,1.2452805E1,2.7645306E2,5.7255023E2,0E0,0E0,8.542892E0,3.7333193E0,1.5303482E2,1.3020755E2,1.5302301E2,5.804331E1,1.447065E1,4.6173096E-2,0E0,0E0,1.5670871E2,1.5043036E2,4.5180244E0,1.5027652E2,0E0,4.4646263E0,6.2691855E0,4.144882E0,0E0,0E0,0E0,0E0,0E0,0E0,0E0,0E0,0E0,0E0,0E0,0E0,0E0,0E0,0E0,0E0,0E0,0E0],"parents":[2147483647,0,0,1,1,3,3,4,4,5,5,6,6,7,7,8,8,11,11,12,12,13,13,14,14,15,15,16,16,17,17,18,18,21,21,22,22,23,23,24,24,26,26,27,27,28,28],"right_children":[2,4,-1,6,8,10,12,14,16,-1,-1,18,20,22,24,26,28,30,32,-1,-1,34,36,38,40,-1,42,44,46,-1,-1,-1,-1,-1,-1,-1,-1,-1,-1,-1,-1,-1,-1,-1,-1,-1,-1],"split_conditions":[7.772E1,-1.23E0,2.5870779E0,2E0,1.971E1,1.5E2,2.8E0,6.38E0,1E0,-1.0909889E-1,-4.16025E-1,1.68E2,6.48E2,6E0,9.9E1,9.72E0,1.18E0,1E0,2.6E0,-6.649211E-2,2.3994613E-2,1.144E1,1.99E0,1E3,7.8E-1,-5.193898E-1,1.23E0,1E3,2.257E1,-1.7909423E-1,-3.1591784E-2,-1.9631274E-1,-5.6141336E-2,1.581584E-2,2.3010051E-1,-9.2741884E-2,1.126782E-2,-1.0231706E-1,6.4492463E-3,4.6277214E-2,2.3302157E-1,-1.3059978E-1,-6.047481E-3,-8.326655E-2,1.9108677E-2,2.7739882E-1,1.0894921E-1],"split_indices":[7,6,0,11,7,0,5,6,12,0,0,3,3,10,0,6,2,9,5,0,0,7,6,1,2,0,2,1,7,0,0,0,0,0,0,0,0,0,0,0,0,0,0,0,0,0,0],"split_type":[0,0,0,0,0,0,0,0,0,0,0,0,0,0,0,0,0,0,0,0,0,0,0,0,0,0,0,0,0,0,0,0,0,0,0,0,0,0,0,0,0,0,0,0,0,0,0],"sum_hessian":[4.16E2,4.15E2,1E0,2.8E1,3.87E2,7E0,2.1E1,3.65E2,2.2E1,1E0,6E0,1.7E1,4E0,3.15E2,5E1,1.1E1,1.1E1,7E0,1E1,3E0,1E0,1.77E2,1.38E2,6E0,4.4E1,7E0,4E0,6E0,5E0,2E0,5E0,9E0,1E0,1.69E2,8E0,7.2E1,6.6E1,5E0,1E0,2E1,2.4E1,3E0,1E0,1E0,5E0,2E0,3E0],"tree_param":{"num_deleted":"0","num_feature":"15","num_nodes":"47","size_leaf_vector":"1"}},{"base_weights":[9.454479E-2,-1.6933346E-1,2.5224009E0,-4.0728374E0,1.749221E-1,-7.7494836E0,-2.6775868E0,-4.093215E-1,1.4986699E0,-2.2398074E-1,-4.9497244E-1,-2.828487E0,1.9827848E-2,-4.169093E0,-1.9706814E-2,7.7402794E-1,3.1221278E0,-1.7525649E0,-3.1896675E0,-5.9947157E-1,-8.749655E0,-1.2350115E-1,3.8165224E-1,4.4896486E-1,2.874548E0,-9.957541E-1,4.0740924E0,-1.7312442E-1,-3.0275455E-2,-6.802576E-2,-1.6768977E-1,2.6656243E-1,-1.0160979E-1,-4.9666652E-1,-1.3383166E-1,-1.4234449E-2,1.8524997E-1,-5.5763166E-2,3.399832E-2,4.775844E-2,2.3014466E-1,2.2648901E-3,-8.939338E-2,5.5835154E-2,3.3702376E-1],"categories":[],"categories_nodes":[],"categories_segments":[],"categories_sizes":[],"default_left":[0,0,0,0,0,0,0,0,0,0,0,0,0,0,0,0,0,0,0,0,0,0,0,0,0,0,0,0,0,0,0,0,0,0,0,0,0,0,0,0,0,0,0,0,0],"id":11,"left_children":[1,3,-1,5,7,9,11,13,15,-1,-1,17,-1,19,21,23,25,27,29,31,33,35,-1,37,39,41,43,-1,-1,-1,-1,-1,-1,-1,-1,-1,-1,-1,-1,-1,-1,-1,-1,-1,-1],"loss_changes":[5.097535E3,5.140451E2,0E0,1.382752E2,2.728471E2,1.1895111E1,1.2254959E1,3.588091E2,1.2463733E2,0E0,0E0,3.347763E0,0E0,3.7082483E2,1.7807431E2,5.060234E1,1.3341934E2,1.359445E1,2.4053955E-1,1.2979335E2,4.529706E1,1.3743558E2,0E0,2.496806E1,2.8776955E1,5.853404E0,2.0538226E2,0E0,0E0,0E0,0E0,0E0,0E0,0E0,0E0,0E0,0E0,0E0,0E0,0E0,0E0,0E0,0E0,0E0,0E0],"parents":[2147483647,0,0,1,1,3,3,4,4,5,5,6,6,7,7,8,8,11,11,13,13,14,14,15,15,16,16,17,17,18,18,19,19,20,20,21,21,23,23,24,24,25,25,26,26],"right_children":[2,4,-1,6,8,10,12,14,16,-1,-1,18,-1,20,22,24,26,28,30,32,34,36,-1,38,40,42,44,-1,-1,-1,-1,-1,-1,-1,-1,-1,-1,-1,-1,-1,-1,-1,-1,-1,-1],"split_conditions":[7.772E1,-1.23E0,2.5224009E0,2E0,1.55E0,1.662E1,1.28E0,1E0,7.38E0,-2.2398074E-1,-4.9497244E-1,1.68E2,1.9827848E-2,1.961E1,1.92E0,1.3582E4,9.9E1,1E0,7.7E-1,1.6E1,9.72E0,1.961E1,3.8165224E-1,2.38E2,7.1E-1,1.27E0,8.4E-1,-1.7312442E-1,-3.0275455E-2,-6.802576E-2,-1.6768977E-1,2.6656243E-1,-1.0160979E-1,-4.9666652E-1,-1.3383166E-1,-1.4234449E-2,1.8524997E-1,-5.5763166E-2,3.399832E-2,4.775844E-2,2.3014466E-1,2.2648901E-3,-8.939338E-2,5.5835154E-2,3.3702376E-1],"split_indices":[7,6,0,11,9,7,9,12,6,0,0,3,0,7,2,3,0,9,2,11,6,7,0,3,2,2,2,0,0,0,0,0,0,0,0,0,0,0,0,0,0,0,0,0,0],"split_type":[0,0,0,0,0,0,0,0,0,0,0,0,0,0,0,0,0,0,0,0,0,0,0,0,0,0,0,0,0,0,0,0,0,0,0,0,0,0,0,0,0,0,0,0,0],"sum_hessian":[3.82E2,3.81E2,1E0,3E1,3.51E2,7E0,2.3E1,2.44E2,1.07E2,4E0,3E0,2.2E1,1E0,2.2E1,2.22E2,7.5E1,3.2E1,7E0,1.5E1,1.3E1,9E0,2.2E2,2E0,6.6E1,9E0,6E0,2.6E1,2E0,5E0,2E0,1.3E1,2E0,1.1E1,7E0,2E0,2.12E2,8E0,8E0,5.8E1,5E0,4E0,3E0,3E0,1.3E1,1.3E1],"tree_param":{"num_deleted":"0","num_feature":"15","num_nodes":"45","size_leaf_vector":"1"}},{"base_weights":[-4.43649E-2,-2.891858E-1,2.4593408E0,-4.143562E0,4.4046603E-2,-7.478295E0,-2.7203884E0,-3.537457E-1,1.2034615E0,-4.150014E-1,-1.5340768E-1,-3.6010554E0,-1.3522319E0,-1.7935076E-1,-4.9921556E0,-1.2270694E0,1.5363533E0,-2.572921E-2,-1.8994464E-1,-3.9908743E-1,-1.0400021E-1,5.1719613E0,-2.80022E-1,-4.9884033E-1,-2.4988916E0,-1.9118428E0,6.204384E-1,9.1992044E-1,3.2317588E0,-5.339113E-2,3.127943E-2,6.968402E-2,5.071271E-1,2.220979E-1,-1.9416517E-2,1.1476064E-2,-1.4607269E-1,-1.0699409E-1,-2.1882893E-3,4.081434E-3,3.8641606E-2,9.5038466E-2,3.0044336E-2,3.5354742E-1,9.9288754E-2],"categories":[],"categories_nodes":[],"categories_segments":[],"categories_sizes":[],"default_left":[0,0,0,0,0,0,0,0,0,0,0,0,0,0,0,0,0,0,0,0,0,0,0,0,0,0,0,0,0,0,0,0,0,0,0,0,0,0,0,0,0,0,0,0,0],"id":12,"left_children":[1,3,-1,5,7,9,11,13,15,-1,-1,17,19,21,23,25,27,-1,-1,29,-1,31,33,-1,35,37,39,41,43,-1,-1,-1,-1,-1,-1,-1,-1,-1,-1,-1,-1,-1,-1,-1,-1],"loss_changes":[4.8715117E3,5.1651245E2,0E0,1.3152509E2,1.7153326E2,7.1498413E0,2.4047913E1,2.2317415E2,7.875008E1,0E0,0E0,6.593811E0,6.800291E0,1.4582608E2,9.934955E1,1.6367672E1,8.481575E1,0E0,0E0,4.779439E0,0E0,7.976578E1,1.367424E2,0E0,9.893925E0,3.7402954E0,2.6535952E-1,1.8572056E1,9.119716E1,0E0,0E0,0E0,0E0,0E0,0E0,0E0,0E0,0E0,0E0,0E0,0E0,0E0,0E0,0E0,0E0],"parents":[2147483647,0,0,1,1,3,3,4,4,5,5,6,6,7,7,8,8,11,11,12,12,13,13,14,14,15,15,16,16,19,19,21,21,22,22,24,24,25,25,26,26,27,27,28,28],"right_children":[2,4,-1,6,8,10,12,14,16,-1,-1,18,20,22,24,26,28,-1,-1,30,-1,32,34,-1,36,38,40,42,44,-1,-1,-1,-1,-1,-1,-1,-1,-1,-1,-1,-1,-1,-1,-1,-1],"split_conditions":[7.772E1,-1.23E0,2.4593408E0,2E0,3.58E0,2.36E0,2.55E0,8.67E0,9E0,-4.150014E-1,-1.5340768E-1,5E0,-1.65E0,-7.8E-1,1.5E2,3.99E0,7.38E0,-2.572921E-2,-1.8994464E-1,1.412E3,-1.0400021E-1,7.9E-1,1.1E-1,-4.9884033E-1,8.8E1,1E3,9.9E1,3.82E0,8.05E0,-5.339113E-2,3.127943E-2,6.968402E-2,5.071271E-1,2.220979E-1,-1.9416517E-2,1.1476064E-2,-1.4607269E-1,-1.0699409E-1,-2.1882893E-3,4.081434E-3,3.8641606E-2,9.5038466E-2,3.0044336E-2,3.5354742E-1,9.9288754E-2],"split_indices":[7,6,0,11,5,5,5,6,4,0,0,10,6,8,0,5,6,0,0,3,0,2,2,0,3,0,0,5,6,0,0,0,0,0,0,0,0,0,0,0,0,0,0,0,0],"split_type":[0,0,0,0,0,0,0,0,0,0,0,0,0,0,0,0,0,0,0,0,0,0,0,0,0,0,0,0,0,0,0,0,0,0,0,0,0,0,0,0,0,0,0,0,0],"sum_hessian":[4.02E2,4.01E2,1E0,3.1E1,3.7E2,8E0,2.3E1,2.76E2,9.4E1,6E0,2E0,1.3E1,1E1,2.67E2,9E0,1.1E1,8.3E1,1E0,1.2E1,5E0,5E0,4E0,2.63E2,2E0,7E0,8E0,3E0,6.2E1,2.1E1,3E0,2E0,3E0,1E0,5E0,2.58E2,1E0,6E0,7E0,1E0,1E0,2E0,1.4E1,4.8E1,4E0,1.7E1],"tree_param":{"num_deleted":"0","num_feature":"15","num_nodes":"45","size_leaf_vector":"1"}},{"base_weights":[8.991738E-2,2.3978574E0,-1.589771E-1,-3.3368862E0,2.1914826E-1,-6.801366E0,-2.4235709E0,-2.2789376E0,5.3578085E-1,-1.1087126E-2,-3.8548175E-1,-3.4396765E0,-1.5403131E0,-7.6408815E0,3.8714406E-1,2.048954E-1,2.8043041E0,-5.6168795E-2,-3.709617E0,-1.803679E0,-3.5930067E-2,-2.2629113E0,-4.8898277E-1,4.1935954E0,-1.4362879E0,-5.00766E-2,1.5841507E0,3.434552E0,-5.6747943E-1,-6.123043E-2,-2.0250542E-1,-9.752706E-2,1.3652921E-2,2.93769E-2,-4.7658358E-2,-1.2836026E-1,-2.61434E-2,3.8466376E-1,1.0473239E-1,-1.6128665E-1,-4.4957932E-2,2.6470715E-2,-5.2489605E-2,4.9444896E-1,5.7019968E-2,2.0240834E-1,5.054922E-2,-5.8485787E-2,3.1270385E-2],"categories":[],"categories_nodes":[],"categories_segments":[],"categories_sizes":[],"default_left":[0,0,0,0,0,0,0,0,0,0,0,0,0,0,0,0,0,0,0,0,0,0,0,0,0,0,0,0,0,0,0,0,0,0,0,0,0,0,0,0,0,0,0,0,0,0,0,0,0],"id":13,"left_children":[1,-1,3,5,7,9,11,13,15,-1,-1,17,19,21,23,25,27,-1,29,31,33,35,-1,37,39,41,43,45,47,-1,-1,-1,-1,-1,-1,-1,-1,-1,-1,-1,-1,-1,-1,-1,-1,-1,-1,-1,-1],"loss_changes":[4.6063853E3,0E0,4.6336578E2,1.132471E2,2.741075E2,4.609897E1,2.5216248E1,5.6047797E2,2.2986612E2,0E0,0E0,5.2116394E0,7.8592567E0,1.27398926E2,1.9342494E2,9.467896E1,8.4826385E1,0E0,6.0398254E0,5.717514E0,2.847494E0,1.3051109E0,0E0,4.999611E1,1.536166E1,1.326421E2,1.4350435E2,4.498291E1,5.7603498E0,0E0,0E0,0E0,0E0,0E0,0E0,0E0,0E0,0E0,0E0,0E0,0E0,0E0,0E0,0E0,0E0,0E0,0E0,0E0,0E0],"parents":[2147483647,0,0,2,2,3,3,4,4,5,5,6,6,7,7,8,8,11,11,12,12,13,13,14,14,15,15,16,16,18,18,19,19,20,20,21,21,23,23,24,24,25,25,26,26,27,27,28,28],"right_children":[2,-1,4,6,8,10,12,14,16,-1,-1,18,20,22,24,26,28,-1,30,32,34,36,-1,38,40,42,44,46,48,-1,-1,-1,-1,-1,-1,-1,-1,-1,-1,-1,-1,-1,-1,-1,-1,-1,-1,-1,-1],"split_conditions":[-3.29E0,2.3978574E0,-5.7E-1,2.22E0,1E0,3.6E1,1.7E1,2.5E0,6.38E0,-1.1087126E-2,-3.8548175E-1,1E0,-6.4E-1,6.5E-1,1.6E1,3.1E1,9.2E-1,-5.6168795E-2,5.4E-1,3.48E0,2.415E3,6.85E2,-4.8898277E-1,6.7E-1,2.88E0,6E0,8.1E-1,3.2E1,2.6E1,-6.123043E-2,-2.0250542E-1,-9.752706E-2,1.3652921E-2,2.93769E-2,-4.7658358E-2,-1.2836026E-1,-2.61434E-2,3.8466376E-1,1.0473239E-1,-1.6128665E-1,-4.4957932E-2,2.6470715E-2,-5.2489605E-2,4.9444896E-1,5.7019968E-2,2.0240834E-1,5.054922E-2,-5.8485787E-2,3.1270385E-2],"split_indices":[8,0,6,5,12,3,14,5,6,0,0,14,6,8,11,14,8,0,8,5,3,3,0,8,5,10,5,14,14,0,0,0,0,0,0,0,0,0,0,0,0,0,0,0,0,0,0,0,0],"split_type":[0,0,0,0,0,0,0,0,0,0,0,0,0,0,0,0,0,0,0,0,0,0,0,0,0,0,0,0,0,0,0,0,0,0,0,0,0,0,0,0,0,0,0,0,0,0,0,0,0],"sum_hessian":[3.85E2,1E0,3.84E2,4E1,3.44E2,7E0,3.3E1,3.8E1,3.06E2,1E0,6E0,1.4E1,1.9E1,1.2E1,2.6E1,2.68E2,3.8E1,2E0,1.2E1,1.6E1,3E0,4E0,8E0,8E0,1.8E1,2.27E2,4.1E1,3.2E1,6E0,2E0,1E1,1.5E1,1E0,2E0,1E0,3E0,1E0,2E0,6E0,3E0,1.5E1,1.44E2,8.3E1,1E0,4E1,2.5E1,7E0,4E0,2E0],"tree_param":{"num_deleted":"0","num_feature":"15","num_nodes":"49","size_leaf_vector":"1"}},{"base_weights":[-2.3097625E-1,-1.6659347E0,3.5331446E-1,1.1073864E0,-2.5272727E0,6.397222E-1,-2.51344E0,-4.292919E-1,2.7796116E-1,-3.443928E0,-1.7489357E0,2.8752854E-1,2.5877576E0,9.5488334E-1,-4.889314E0,-7.972536E-1,1.4990745E-1,-3.8478138E0,1.2753396E-1,-1.9886472E0,-3.017977E-1,4.0159836E0,1.7806837E-1,1.759153E0,6.71379E0,-2.3295872E-1,2.7201378E0,-8.593432E0,5.7159656E-1,-8.973997E-1,-1.6430013E-1,4.7066E-1,-3.2424215E-2,-1.0391175E-1,-4.2032905E0,3.4972006E-1,-2.1824582E0,1.5391752E0,-1.7142164E0,4.820877E-1,9.624788E-1,6.723024E-2,2.3548565E0,-4.9981856E-1,2.627093E0,6.771667E-2,4.5274672E-1,1.4564729E-1,3.9831085E0,-5.009109E-1,-1.20222844E-1,1.9474326E-1,-6.314257E-1,-5.926578E-2,-2.2995861E-2,-1.0809946E-2,-1.5125632E-3,2.9166272E-2,-5.133319E-3,-2.8661263E-1,-1.7776011E-1,3.348769E-2,-1.5259522E-2,-5.9811052E-2,-1.2459818E-1,2.025872E-2,8.910587E-2,-2.237599E-2,-9.595054E-2,1.0650271E-1,6.903571E-3,3.0410632E-2,-3.1498984E-2,2.4957512E-1,-6.4004496E-2,3.4726243E-2,-1.2324826E-1,1.8345928E-1,4.2129843E-3,-1.0399691E-2,3.0164266E-2,5.2875366E-2,2.1783637E-1,-5.7917263E-2,1.4080442E-2],"categories":[],"categories_nodes":[],"categories_segments":[],"categories_sizes":[],"default_left":[0,0,0,0,0,0,0,0,0,0,0,0,0,0,0,0,0,0,0,0,0,0,0,0,0,0,0,0,0,0,0,0,0,0,0,0,0,0,0,0,0,0,0,0,0,0,0,0,0,0,0,0,0,0,0,0,0,0,0,0,0,0,0,0,0,0,0,0,0,0,0,0,0,0,0,0,0,0,0,0,0,0,0,0,0],"id":14,"left_children":[1,3,5,7,9,11,13,15,-1,17,19,21,23,25,27,29,31,33,-1,35,37,39,41,43,45,-1,47,49,51,53,55,57,-1,-1,59,61,63,65,67,-1,69,71,73,75,77,-1,-1,79,81,-1,-1,-1,83,-1,-1,-1,-1,-1,-1,-1,-1,-1,-1,-1,-1,-1,-1,-1,-1,-1,-1,-1,-1,-1,-1,-1,-1,-1,-1,-1,-1,-1,-1,-1,-1],"loss_changes":[3.2170834E2,2.679518E2,2.257575E2,1.8709464E2,5.462146E1,1.7009131E2,2.1067624E2,4.5951023E0,0E0,1.0181772E2,1.6050812E1,8.580577E1,1.181057E2,1.2168624E2,3.0832983E2,6.765976E-1,2.6099913E0,1.3910156E1,0E0,1.9344513E1,2.3440275E1,9.3789925E1,4.9784805E1,6.601459E1,6.3020172E1,0E0,2.8683426E1,5.5273254E1,3.0445078E1,8.4039307E-1,1.4330633E-2,5.120466E-1,0E0,0E0,8.356873E0,1.0427761E0,8.618393E0,3.7991905E-1,4.3826485E-1,0E0,4.518689E0,7.506447E1,1.02230225E2,2.5182579E1,6.328766E1,0E0,0E0,7.728381E-1,1.9510803E0,0E0,0E0,0E0,3.2127743E0,0E0,0E0,0E0,0E0,0E0,0E0,0E0,0E0,0E0,0E0,0E0,0E0,0E0,0E0,0E0,0E0,0E0,0E0,0E0,0E0,0E0,0E0,0E0,0E0,0E0,0E0,0E0,0E0,0E0,0E0,0E0,0E0],"parents":[2147483647,0,0,1,1,2,2,3,3,4,4,5,5,6,6,7,7,9,9,10,10,11,11,12,12,13,13,14,14,15,15,16,16,17,17,19,19,20,20,21,21,22,22,23,23,24,24,26,26,27,27,28,28,29,29,30,30,31,31,34,34,35,35,36,36,37,37,38,38,40,40,41,41,42,42,43,43,44,44,47,47,48,48,52,52],"right_children":[2,4,6,8,10,12,14,16,-1,18,20,22,24,26,28,30,32,34,-1,36,38,40,42,44,46,-1,48,50,52,54,56,58,-1,-1,60,62,64,66,68,-1,70,72,74,76,78,-1,-1,80,82,-1,-1,-1,84,-1,-1,-1,-1,-1,-1,-1,-1,-1,-1,-1,-1,-1,-1,-1,-1,-1,-1,-1,-1,-1,-1,-1,-1,-1,-1,-1,-1,-1,-1,-1,-1],"split_conditions":[8.5E-1,1.15E0,1.922E1,9.1E-1,2.68E0,6.38E0,1.16E0,4.5E-1,2.7796116E-1,1.873E1,5.3E-1,-7.8E-1,4.43E0,2.113E1,2.5E0,1E0,1.03E0,1.195E1,1.2753396E-1,-1.65E0,1.29E0,8.1E-1,1.772E1,1.2E1,1.5E2,-2.3295872E-1,1.6E1,9.72E0,3.31E0,3.2E-1,1E3,7.1E-1,-3.2424215E-2,-1.0391175E-1,2E0,1E3,5E2,2.86E0,2.78E0,4.820877E-1,1.5E2,5E0,1.862E1,1.444E1,7.359E3,6.771667E-2,4.5274672E-1,2.415E3,2.19E0,-5.009109E-1,-1.20222844E-1,1.9474326E-1,3.55E0,-5.926578E-2,-2.2995861E-2,-1.0809946E-2,-1.5125632E-3,2.9166272E-2,-5.133319E-3,-2.8661263E-1,-1.7776011E-1,3.348769E-2,-1.5259522E-2,-5.9811052E-2,-1.2459818E-1,2.025872E-2,8.910587E-2,-2.237599E-2,-9.595054E-2,1.0650271E-1,6.903571E-3,3.0410632E-2,-3.1498984E-2,2.4957512E-1,-6.4004496E-2,3.4726243E-2,-1.2324826E-1,1.8345928E-1,4.2129843E-3,-1.0399691E-2,3.0164266E-2,5.2875366E-2,2.1783637E-1,-5.7917263E-2,1.4080442E-2],"split_indices":[6,5,7,5,5,6,9,6,0,7,6,8,5,7,5,13,8,7,0,6,9,5,7,14,0,0,11,6,5,5,0,5,0,0,11,0,0,5,5,0,0,7,7,7,3,0,0,3,5,0,0,0,5,0,0,0,0,0,0,0,0,0,0,0,0,0,0,0,0,0,0,0,0,0,0,0,0,0,0,0,0,0,0,0,0],"split_type":[0,0,0,0,0,0,0,0,0,0,0,0,0,0,0,0,0,0,0,0,0,0,0,0,0,0,0,0,0,0,0,0,0,0,0,0,0,0,0,0,0,0,0,0,0,0,0,0,0,0,0,0,0,0,0,0,0,0,0,0,0,0,0,0,0,0,0,0,0,0,0,0,0,0,0,0,0,0,0,0,0,0,0,0,0],"sum_hessian":[3.82E2,1.1E2,2.72E2,2.6E1,8.4E1,2.48E2,2.4E1,2E1,6E0,3.7E1,4.7E1,2.11E2,3.7E1,1E1,1.4E1,1.2E1,8E0,3.5E1,2E0,4E1,7E0,5E0,2.06E2,3.2E1,5E0,2E0,8E0,8E0,6E0,1E1,2E0,6E0,2E0,7E0,2.8E1,3E0,3.7E1,3E0,4E0,1E0,4E0,1.97E2,9E0,9E0,2.3E1,2E0,3E0,3E0,5E0,6E0,2E0,1E0,5E0,5E0,5E0,1E0,1E0,5E0,1E0,6E0,2.2E1,2E0,1E0,1E1,2.7E1,1E0,2E0,1E0,3E0,1E0,3E0,1.11E2,8.6E1,5E0,4E0,6E0,3E0,1.6E1,7E0,2E0,1E0,1E0,4E0,3E0,2E0],"tree_param":{"num_deleted":"0","num_feature":"15","num_nodes":"85","size_leaf_vector":"1"}},{"base_weights":[-5.6040354E-2,-2.88695E-1,2.330962E0,-8.3285826E-1,1.3146154E0,2.165718E-1,-1.6699287E0,5.916951E-1,2.6815858E0,3.983801E-2,3.9802527E0,-3.5627785E0,-7.0859367E-1,1.0513314E0,-1.4520949E-1,-2.0240943E-1,4.011851E0,5.672437E-1,-3.8556987E-1,2.4609669E-1,-1.82038E-2,-4.713267E0,-3.919782E-1,-1.6433152E0,6.6825265E-1,7.114605E-1,1.9444715E0,8.095265E-1,-1.0895734E0,1.5609655E-1,-1.1794705E0,3.0972683E0,6.8678107E0,-6.315504E-2,3.1075735E-2,-4.972194E-2,-9.904153E-4,-3.436412E-1,-1.4486067E-1,2.4866219E-1,-1.0063318E-1,-5.3973712E-2,-1.09576546E-1,1.0962279E-1,-1.0886874E-2,4.7133658E-2,-2.2378666E-2,2.8530777E-2,1.4971244E-1,4.199609E-2,1.0359669E-2,-2.62118E-3,-8.299714E-2,6.7966976E-3,-7.626567E-2,2.1144824E-1,8.934417E-2,-1.306113E-2,4.3576875E-1],"categories":[],"categories_nodes":[],"categories_segments":[],"categories_sizes":[],"default_left":[0,0,0,0,0,0,0,0,0,0,0,0,0,0,0,0,0,0,0,0,0,0,0,0,0,0,0,0,0,0,0,0,0,0,0,0,0,0,0,0,0,0,0,0,0,0,0,0,0,0,0,0,0,0,0,0,0,0,0],"id":15,"left_children":[1,3,-1,5,7,9,11,13,15,17,19,21,23,25,27,29,31,33,35,-1,-1,37,39,41,43,45,47,49,51,-1,53,55,57,-1,-1,-1,-1,-1,-1,-1,-1,-1,-1,-1,-1,-1,-1,-1,-1,-1,-1,-1,-1,-1,-1,-1,-1,-1,-1],"loss_changes":[4.3788657E3,3.509524E2,0E0,2.6389572E2,9.921083E1,8.897416E1,3.013592E2,2.3184818E1,1.3508875E2,2.916148E1,2.6337784E1,2.0243872E2,1.4523854E2,1.1365784E1,2.522573E1,4.265923E1,4.141684E1,6.54644E0,1.6014767E1,0E0,0E0,1.4088464E2,1.4913486E2,1.8344437E1,6.2597107E1,8.997381E0,1.4156105E1,8.2286835E-2,8.194799E0,0E0,4.7565727E0,2.2102493E1,6.813336E1,0E0,0E0,0E0,0E0,0E0,0E0,0E0,0E0,0E0,0E0,0E0,0E0,0E0,0E0,0E0,0E0,0E0,0E0,0E0,0E0,0E0,0E0,0E0,0E0,0E0,0E0],"parents":[2147483647,0,0,1,1,3,3,4,4,5,5,6,6,7,7,8,8,9,9,10,10,11,11,12,12,13,13,14,14,15,15,16,16,17,17,18,18,21,21,22,22,23,23,24,24,25,25,26,26,27,27,28,28,30,30,31,31,32,32],"right_children":[2,4,-1,6,8,10,12,14,16,18,20,22,24,26,28,30,32,34,36,-1,-1,38,40,42,44,46,48,50,52,-1,54,56,58,-1,-1,-1,-1,-1,-1,-1,-1,-1,-1,-1,-1,-1,-1,-1,-1,-1,-1,-1,-1,-1,-1,-1,-1,-1,-1],"split_conditions":[7.772E1,3.56E0,2.330962E0,6E0,6.38E0,1.297E1,2.62E0,2E1,1E1,1.86E0,1.8E-1,3E0,2.06E0,9.4E-1,4.28E0,1.547E1,4.43E0,5E0,3E0,2.4609669E-1,-1.82038E-2,1.07E0,6E-1,9.2E-1,8.5E-1,5.8E-1,1.53E1,5.8E-1,3E0,1.5609655E-1,6E0,4E0,3.5E-1,-6.315504E-2,3.1075735E-2,-4.972194E-2,-9.904153E-4,-3.436412E-1,-1.4486067E-1,2.4866219E-1,-1.0063318E-1,-5.3973712E-2,-1.09576546E-1,1.0962279E-1,-1.0886874E-2,4.7133658E-2,-2.2378666E-2,2.8530777E-2,1.4971244E-1,4.199609E-2,1.0359669E-2,-2.62118E-3,-8.299714E-2,6.7966976E-3,-7.626567E-2,2.1144824E-1,8.934417E-2,-1.306113E-2,4.3576875E-1],"split_indices":[7,5,0,10,6,7,5,11,4,7,2,12,6,2,7,7,5,4,12,0,0,2,2,8,8,2,7,2,12,0,4,12,2,0,0,0,0,0,0,0,0,0,0,0,0,0,0,0,0,0,0,0,0,0,0,0,0,0,0],"split_type":[0,0,0,0,0,0,0,0,0,0,0,0,0,0,0,0,0,0,0,0,0,0,0,0,0,0,0,0,0,0,0,0,0,0,0,0,0,0,0,0,0,0,0,0,0,0,0,0,0,0,0,0,0,0,0,0,0,0,0],"sum_hessian":[4.01E2,4E2,1E0,2.99E2,1.01E2,1.33E2,1.66E2,6.7E1,3.4E1,1.28E2,5E0,5.5E1,1.11E2,4.1E1,2.6E1,1.1E1,2.3E1,5.7E1,7.1E1,4E0,1E0,4E1,1.5E1,6.6E1,4.5E1,3.1E1,1E1,1.3E1,1.3E1,2E0,9E0,1.9E1,4E0,1E0,5.6E1,2.6E1,4.5E1,1.7E1,2.3E1,3E0,1.2E1,3.4E1,3.2E1,1.6E1,2.9E1,2.6E1,5E0,5E0,5E0,1.2E1,1E0,5E0,8E0,2E0,7E0,9E0,1E1,1E0,3E0],"tree_param":{"num_deleted":"0","num_feature":"15","num_nodes":"59","size_leaf_vector":"1"}},{"base_weights":[-4.5616712E-2,-6.000216E-1,1.4960849E0,1.4458828E-1,-1.6724831E0,5.882734E-1,3.0936313E0,-2.9429603E0,3.0000475E-1,-2.178304E0,1.23307E-1,-7.1532357E-1,8.105537E-1,-1.0424224E-2,4.2878995E0,-1.9226812E-1,-1.5716994E-1,7.992125E-2,2.3928058E0,-4.1836367E0,-1.4573941E0,-1.4936359E0,1.855145E0,-1.7570815E0,-1.78442E-2,6.179689E-1,2.3124325E0,2.2355287E0,-7.579169E-1,3.1323147E0,7.617798E0,9.293079E-3,-2.1080825E-2,-1.3839889E-1,1.7190423E0,6.399313E-2,5.045164E0,-5.0580726E0,1.234451E0,-1.8450682E0,6.839529E-1,-1.4579646E-1,-3.7948087E-1,3.3250506E0,5.208225E-1,-7.980299E-3,-1.11818574E-1,-3.444415E-2,3.8834792E-1,1.0076418E0,1.3760181E-1,1.5910197E-2,1.3238187E-1,5.273795E-3,1.6239086E-1,-8.044935E-2,7.081673E-1,3.5769525E0,-7.2782993E-1,4.7207266E-1,1.323496E-1,3.7375842E-3,-1.0148559E-1,4.7006032E-1,3.2566585E-2,-7.9355374E-2,8.5114755E-2,2.8772908E-1,1.971649E-2,-1.7385523E-1,-3.748713E-1,8.4708795E-2,-3.6180855E-3,-1.5399781E-2,-1.0099306E-1,-8.46957E-2,1.4739138E-1,5.042538E-2,-8.4578656E-2,-2.988704E-2,2.1145785E-1,5.3332914E-2,-1.4583888E-2,2.214306E-2,4.2573693E-3,3.897797E-2,9.504545E-2,3.5572924E-2,-4.4893846E-2,6.394913E-2,4.5784E-3,8.997494E-2,2.3530276E-1,-7.574669E-2,2.1159446E-2],"categories":[],"categories_nodes":[],"categories_segments":[],"categories_sizes":[],"default_left":[0,0,0,0,0,0,0,0,0,0,0,0,0,0,0,0,0,0,0,0,0,0,0,0,0,0,0,0,0,0,0,0,0,0,0,0,0,0,0,0,0,0,0,0,0,0,0,0,0,0,0,0,0,0,0,0,0,0,0,0,0,0,0,0,0,0,0,0,0,0,0,0,0,0,0,0,0,0,0,0,0,0,0,0,0,0,0,0,0,0,0,0,0,0,0],"id":16,"left_children":[1,3,5,7,9,11,13,15,17,19,21,23,25,27,29,-1,31,33,35,37,39,41,43,45,47,49,51,53,55,57,59,-1,-1,61,63,65,67,69,71,73,75,-1,77,79,81,-1,-1,-1,83,85,87,-1,-1,-1,-1,-1,89,91,93,-1,-1,-1,-1,-1,-1,-1,-1,-1,-1,-1,-1,-1,-1,-1,-1,-1,-1,-1,-1,-1,-1,-1,-1,-1,-1,-1,-1,-1,-1,-1,-1,-1,-1,-1,-1],"loss_changes":[3.2312976E2,2.2224303E2,1.4320718E2,8.005912E1,1.0382025E2,1.9414463E1,1.3349945E2,1.9506836E1,7.258213E1,1.22566864E2,7.557827E1,7.234693E0,1.4768375E1,2.0161512E1,7.618616E1,0E0,3.5050282E-1,5.1768764E1,9.2329834E1,1.1521265E2,5.6881638E1,2.107863E1,2.3765507E1,2.705677E0,2.175521E0,9.407837E0,3.1683617E0,6.1261168E0,1.2369095E1,3.864711E1,2.9398743E1,0E0,0E0,5.1752934E1,1.3331625E2,2.7046736E1,2.0826477E1,5.10614E1,2.5256906E0,1.4692062E1,6.420849E1,0E0,1.8096485E1,2.3807663E1,3.8590548E0,0E0,0E0,0E0,4.4933796E-2,4.222805E0,1.4899995E1,0E0,0E0,0E0,0E0,0E0,1.2907434E0,2.9663055E1,3.3590174E0,0E0,0E0,0E0,0E0,0E0,0E0,0E0,0E0,0E0,0E0,0E0,0E0,0E0,0E0,0E0,0E0,0E0,0E0,0E0,0E0,0E0,0E0,0E0,0E0,0E0,0E0,0E0,0E0,0E0,0E0,0E0,0E0,0E0,0E0,0E0,0E0],"parents":[2147483647,0,0,1,1,2,2,3,3,4,4,5,5,6,6,7,7,8,8,9,9,10,10,11,11,12,12,13,13,14,14,16,16,17,17,18,18,19,19,20,20,21,21,22,22,23,23,24,24,25,25,26,26,27,27,28,28,29,29,30,30,33,33,34,34,35,35,36,36,37,37,38,38,39,39,40,40,42,42,43,43,44,44,48,48,49,49,50,50,56,56,57,57,58,58],"right_children":[2,4,6,8,10,12,14,16,18,20,22,24,26,28,30,-1,32,34,36,38,40,42,44,46,48,50,52,54,56,58,60,-1,-1,62,64,66,68,70,72,74,76,-1,78,80,82,-1,-1,-1,84,86,88,-1,-1,-1,-1,-1,90,92,94,-1,-1,-1,-1,-1,-1,-1,-1,-1,-1,-1,-1,-1,-1,-1,-1,-1,-1,-1,-1,-1,-1,-1,-1,-1,-1,-1,-1,-1,-1,-1,-1,-1,-1,-1,-1],"split_conditions":[3.5E0,1.489E1,6.38E0,1E0,4E0,3.64E0,1E1,1.2E0,1.362E1,2.5E0,1.653E1,1.733E3,1.622E1,7.78E0,1.33E0,-1.9226812E-1,1.25E0,5E0,2E0,2.341E1,1.763E1,3.22E0,2.5E2,1E3,3.55E0,1.8E1,2.24E0,9.9E1,3.92E0,1.538E1,1.68E0,9.293079E-3,-2.1080825E-2,1.047E1,8.1E-1,-6.9E-1,1E3,3.47E0,1E3,7E1,1.05E0,-1.4579646E-1,1.8E1,1.6E-1,1.52E0,-7.980299E-3,-1.11818574E-1,-3.444415E-2,1.3582E4,1.047E1,4.28E0,1.5910197E-2,1.3238187E-1,5.273795E-3,1.6239086E-1,-8.044935E-2,6.7E-1,1.466E1,1E3,4.7207266E-1,1.323496E-1,3.7375842E-3,-1.0148559E-1,4.7006032E-1,3.2566585E-2,-7.9355374E-2,8.5114755E-2,2.8772908E-1,1.971649E-2,-1.7385523E-1,-3.748713E-1,8.4708795E-2,-3.6180855E-3,-1.5399781E-2,-1.0099306E-1,-8.46957E-2,1.4739138E-1,5.042538E-2,-8.4578656E-2,-2.988704E-2,2.1145785E-1,5.3332914E-2,-1.4583888E-2,2.214306E-2,4.2573693E-3,3.897797E-2,9.504545E-2,3.5572924E-2,-4.4893846E-2,6.394913E-2,4.5784E-3,8.997494E-2,2.3530276E-1,-7.574669E-2,2.1159446E-2],"split_indices":[5,7,6,12,12,5,4,2,7,5,7,3,7,6,2,0,2,12,13,7,7,5,0,1,5,11,6,0,5,6,9,0,0,7,5,6,0,6,0,3,2,0,11,2,9,0,0,0,3,7,7,0,0,0,0,0,2,7,0,0,0,0,0,0,0,0,0,0,0,0,0,0,0,0,0,0,0,0,0,0,0,0,0,0,0,0,0,0,0,0,0,0,0,0,0],"split_type":[0,0,0,0,0,0,0,0,0,0,0,0,0,0,0,0,0,0,0,0,0,0,0,0,0,0,0,0,0,0,0,0,0,0,0,0,0,0,0,0,0,0,0,0,0,0,0,0,0,0,0,0,0,0,0,0,0,0,0,0,0,0,0,0,0,0,0,0,0,0,0,0,0,0,0,0,0,0,0,0,0,0,0,0,0,0,0,0,0,0,0,0,0,0,0],"sum_hessian":[3.76E2,2.77E2,9.9E1,1.64E2,1.13E2,6.4E1,3.5E1,7E0,1.57E2,8.8E1,2.5E1,9E0,5.5E1,1E1,2.5E1,5E0,2E0,1.43E2,1.4E1,2.2E1,6.6E1,1.3E1,1.2E1,3E0,6E0,5E1,5E0,2E0,8E0,2E1,5E0,1E0,1E0,1.27E2,1.6E1,8E0,6E0,1.9E1,3E0,5.6E1,1E1,5E0,8E0,5E0,7E0,1E0,2E0,2E0,4E0,2.7E1,2.3E1,1E0,4E0,1E0,1E0,5E0,3E0,1.8E1,2E0,3E0,2E0,1.15E2,1.2E1,1E0,1.5E1,4E0,4E0,5E0,1E0,1.3E1,6E0,2E0,1E0,6E0,5E1,5E0,5E0,4E0,4E0,1E0,4E0,4E0,3E0,3E0,1E0,2.3E1,4E0,1.5E1,8E0,1E0,2E0,8E0,1E1,1E0,1E0],"tree_param":{"num_deleted":"0","num_feature":"15","num_nodes":"95","size_leaf_vector":"1"}},{"base_weights":[1.9301927E-2,2.2674015E0,-2.1622212E-1,1.1578175E0,-7.424086E-1,3.245155E-1,4.026132E0,-2.7945638E0,-2.8213638E-1,5.3332895E-1,-7.576466E-1,5.2705193E0,-5.854493E-1,-4.601143E0,-2.0402102E-1,-4.416117E-1,2.63851E0,3.635251E-1,1.426484E0,3.560565E-1,-1.2387335E0,5.163422E-1,3.6770303E0,1.438517E-2,-1.5545031E0,-6.5577183E0,-2.2073863E0,1.1371771E-1,-5.6557626E-1,1.5582025E-1,-1.3429842E0,3.9268277E0,6.95721E-1,3.1948525E-2,-1.6499091E-2,3.2634825E-2,1.1122449E-1,-1.3964248E-2,2.9235655E-2,-7.3487006E-2,2.1008153E-2,-5.742099E-3,2.4752788E-1,-2.0553807E-2,-9.603392E-2,-1.8757679E-1,-4.4474798E-1,-1.8242505E-1,-1.9591877E-3,-1.1988733E-3,-1.0927886E-1,9.9477254E-2,-9.469721E-3,-1.0885221E-1,-1.30313635E-2,4.1557323E-2,2.4994354E-1,6.6385835E-2,2.3896992E-3],"categories":[],"categories_nodes":[],"categories_segments":[],"categories_sizes":[],"default_left":[0,0,0,0,0,0,0,0,0,0,0,0,0,0,0,0,0,0,0,0,0,0,0,0,0,0,0,0,0,0,0,0,0,0,0,0,0,0,0,0,0,0,0,0,0,0,0,0,0,0,0,0,0,0,0,0,0,0,0],"id":17,"left_children":[1,-1,3,5,7,9,11,13,15,17,19,21,23,25,27,29,31,33,35,37,39,-1,41,-1,43,45,47,-1,49,51,53,55,57,-1,-1,-1,-1,-1,-1,-1,-1,-1,-1,-1,-1,-1,-1,-1,-1,-1,-1,-1,-1,-1,-1,-1,-1,-1,-1],"loss_changes":[4.130743E3,0E0,2.7921497E2,2.5444188E2,2.6274097E2,1.9385551E1,1.4081186E2,2.3774228E2,1.0782676E2,1.0249382E1,7.942091E0,1.15114624E2,5.524027E0,1.26031555E2,2.0999851E1,1.1760417E2,2.7303177E1,1.1863271E1,5.340439E0,8.8967663E-1,4.44969E0,0E0,7.7833405E1,0E0,4.6653938E-1,7.1569885E1,4.672648E1,0E0,1.7495407E1,8.393659E1,7.797189E1,1.9076141E1,2.3934655E0,0E0,0E0,0E0,0E0,0E0,0E0,0E0,0E0,0E0,0E0,0E0,0E0,0E0,0E0,0E0,0E0,0E0,0E0,0E0,0E0,0E0,0E0,0E0,0E0,0E0,0E0],"parents":[2147483647,0,0,2,2,3,3,4,4,5,5,6,6,7,7,8,8,9,9,10,10,11,11,12,12,13,13,14,14,15,15,16,16,17,17,18,18,19,19,20,20,22,22,24,24,25,25,26,26,28,28,29,29,30,30,31,31,32,32],"right_children":[2,-1,4,6,8,10,12,14,16,18,20,22,24,26,28,30,32,34,36,38,40,-1,42,-1,44,46,48,-1,50,52,54,56,58,-1,-1,-1,-1,-1,-1,-1,-1,-1,-1,-1,-1,-1,-1,-1,-1,-1,-1,-1,-1,-1,-1,-1,-1,-1,-1],"split_conditions":[-9.98E0,2.2674015E0,7.2E-1,9.6E-1,2E0,7E-1,1.888E3,2.94E0,2.025E1,3.92E0,2.7E-1,1.01E0,3.769E3,1E0,3E2,1.534E1,1.337E3,3.35E0,5.26E0,1E3,9.4E-1,5.163422E-1,1.27E0,1.438517E-2,1E4,1.906E1,9.4E-1,1.1371771E-1,1.725E1,2E-1,2.13E0,2.19E0,1.5E2,3.1948525E-2,-1.6499091E-2,3.2634825E-2,1.1122449E-1,-1.3964248E-2,2.9235655E-2,-7.3487006E-2,2.1008153E-2,-5.742099E-3,2.4752788E-1,-2.0553807E-2,-9.603392E-2,-1.8757679E-1,-4.4474798E-1,-1.8242505E-1,-1.9591877E-3,-1.1988733E-3,-1.0927886E-1,9.9477254E-2,-9.469721E-3,-1.0885221E-1,-1.30313635E-2,4.1557323E-2,2.4994354E-1,6.6385835E-2,2.3896992E-3],"split_indices":[6,0,8,2,12,2,3,5,7,5,8,2,3,12,1,7,3,7,6,1,2,0,2,0,1,7,6,0,7,2,6,5,0,0,0,0,0,0,0,0,0,0,0,0,0,0,0,0,0,0,0,0,0,0,0,0,0,0,0],"split_type":[0,0,0,0,0,0,0,0,0,0,0,0,0,0,0,0,0,0,0,0,0,0,0,0,0,0,0,0,0,0,0,0,0,0,0,0,0,0,0,0,0,0,0,0,0,0,0,0,0,0,0,0,0,0,0,0,0,0,0],"sum_hessian":[3.85E2,1E0,3.84E2,1.06E2,2.78E2,8.3E1,2.3E1,5E1,2.28E2,7E1,1.3E1,1.8E1,5E0,2.9E1,2.1E1,2.17E2,1.1E1,6E1,1E1,4E0,9E0,3E0,1.5E1,3E0,2E0,1.5E1,1.4E1,2E0,1.9E1,1.31E2,8.6E1,6E0,5E0,4.3E1,1.7E1,6E0,4E0,1E0,3E0,8E0,1E0,4E0,1.1E1,1E0,1E0,8E0,7E0,8E0,6E0,1.5E1,4E0,2E1,1.11E2,4.8E1,3.8E1,2E0,4E0,2E0,3E0],"tree_param":{"num_deleted":"0","num_feature":"15","num_nodes":"59","size_leaf_vector":"1"}},{"base_weights":[2.8851345E-2,2.2107162E0,-1.8941976E-1,-1.5296848E0,3.0929166E-1,3.133957E0,-2.0273886E0,-1.3077996E0,6.1206764E-1,4.5147214E0,-4.1106144E-1,-5.110637E-1,-1.8413769E0,-4.520919E0,3.3962888E-1,3.2161024E-1,2.1752703E0,-3.816702E-2,2.6888895E-1,1.4039397E-2,-3.6763694E-2,-2.47086E0,-9.6412295E-1,-7.1179314E0,-1.6505559E-1,4.361965E0,-5.6680244E-1,1.2113985E-2,7.41015E-1,6.4176774E-1,3.3310783E0,-1.793667E-1,-1.0467076E-1,6.711133E-2,-6.514559E-2,-5.2214604E-2,-4.2529026E-1,-4.192495E-2,5.061843E-2,3.4008574E-1,7.208308E-2,-1.228794E-1,-6.555927E-3,4.5782268E-2,-9.688032E-3,2.5852082E-2,2.7135906E-1,1.1087998E-1,-4.2032894E-2,-9.7467475E-2,1.9782943E-1],"categories":[],"categories_nodes":[],"categories_segments":[],"categories_sizes":[],"default_left":[0,0,0,0,0,0,0,0,0,0,0,0,0,0,0,0,0,0,0,0,0,0,0,0,0,0,0,0,0,0,0,0,0,0,0,0,0,0,0,0,0,0,0,0,0,0,0,0,0,0,0],"id":18,"left_children":[1,-1,3,5,7,9,11,13,15,17,19,-1,21,23,25,27,29,-1,-1,-1,-1,31,33,35,37,39,41,43,45,47,49,-1,-1,-1,-1,-1,-1,-1,-1,-1,-1,-1,-1,-1,-1,-1,-1,-1,-1,-1,-1],"loss_changes":[3.9240063E3,0E0,2.7117737E2,2.616761E2,1.4572691E2,5.5699028E1,1.335946E2,2.5032451E2,1.12811356E2,4.054724E1,1.1036807E0,0E0,5.228723E1,1.7982086E2,1.1914346E2,2.7509514E1,6.698718E1,0E0,0E0,0E0,0E0,1.6510437E1,3.5347515E1,7.5411896E1,6.3993692E0,3.2943092E1,2.1919956E1,2.305716E1,9.1655785E1,4.3913204E1,8.0377945E1,0E0,0E0,0E0,0E0,0E0,0E0,0E0,0E0,0E0,0E0,0E0,0E0,0E0,0E0,0E0,0E0,0E0,0E0,0E0,0E0],"parents":[2147483647,0,0,2,2,3,3,4,4,5,5,6,6,7,7,8,8,9,9,10,10,12,12,13,13,14,14,15,15,16,16,21,21,22,22,23,23,24,24,25,25,26,26,27,27,28,28,29,29,30,30],"right_children":[2,-1,4,6,8,10,12,14,16,18,20,-1,22,24,26,28,30,-1,-1,-1,-1,32,34,36,38,40,42,44,46,48,50,-1,-1,-1,-1,-1,-1,-1,-1,-1,-1,-1,-1,-1,-1,-1,-1,-1,-1,-1,-1],"split_conditions":[-3.29E0,2.2107162E0,8.5E-1,2E-1,2E0,1.6E1,-9.98E0,2.45E0,6.37E0,7E0,9E-2,-5.110637E-1,-1E-2,1E0,1.6E1,2.1E1,6.5E-1,-3.816702E-2,2.6888895E-1,1.4039397E-2,-3.6763694E-2,1.2E1,3E2,6.5E-1,4.7E-1,6.7E-1,2.88E0,5.7E-1,1.44E0,1.81E0,1E0,-1.793667E-1,-1.0467076E-1,6.711133E-2,-6.514559E-2,-5.2214604E-2,-4.2529026E-1,-4.192495E-2,5.061843E-2,3.4008574E-1,7.208308E-2,-1.228794E-1,-6.555927E-3,4.5782268E-2,-9.688032E-3,2.5852082E-2,2.7135906E-1,1.1087998E-1,-4.2032894E-2,-9.7467475E-2,1.9782943E-1],"split_indices":[8,0,6,2,12,14,6,5,6,4,2,0,6,12,11,14,2,0,0,0,0,14,1,8,5,8,5,8,2,9,14,0,0,0,0,0,0,0,0,0,0,0,0,0,0,0,0,0,0,0,0],"split_type":[0,0,0,0,0,0,0,0,0,0,0,0,0,0,0,0,0,0,0,0,0,0,0,0,0,0,0,0,0,0,0,0,0,0,0,0,0,0,0,0,0,0,0,0,0,0,0,0,0,0,0],"sum_hessian":[4.05E2,1E0,4.04E2,1.09E2,2.95E2,1E1,9.9E1,4.6E1,2.49E2,7E0,3E0,1E0,9.8E1,1.5E1,3.1E1,2.11E2,3.8E1,1E0,6E0,1E0,2E0,5.6E1,4.2E1,9E0,6E0,5E0,2.6E1,1.22E2,8.9E1,1.7E1,2.1E1,1.2E1,4.4E1,5E0,3.7E1,2E0,7E0,4E0,2E0,2E0,3E0,4E0,2.2E1,2.2E1,1E2,8.6E1,3E0,8E0,9E0,2E0,1.9E1],"tree_param":{"num_deleted":"0","num_feature":"15","num_nodes":"51","size_leaf_vector":"1"}},{"base_weights":[1.1258591E-1,-1.0595561E-1,2.1554487E0,-2.7530692E0,1.0407785E-1,-7.4962587E0,-1.6943083E0,-3.621704E-1,7.2016525E-1,-4.182028E-1,-1.0062683E-1,-1.3064768E0,-1.7019022E-1,4.890142E-1,-1.0100328E0,2.102393E0,1.8505065E-1,-1.7643417E0,6.031321E-1,1.7213798E-1,4.2669377E0,7.175735E-1,-1.4314132E0,5.020052E-1,3.9977577E0,-1.1787107E0,5.7697004E-1,-1.13835454E-1,-4.9950343E-2,-6.415558E-3,4.0903535E-2,-1.353268E-3,1.19784944E-1,2.51025E-1,-6.360847E-3,4.326601E-2,6.505678E-3,-7.63871E-2,1.0320119E-1,4.158247E-2,-7.1826935E-2,4.899323E-1,1.1988403E-1,-2.1835367E-1,1.1289763E-2,7.442833E-2,2.4177646E-3],"categories":[],"categories_nodes":[],"categories_segments":[],"categories_sizes":[],"default_left":[0,0,0,0,0,0,0,0,0,0,0,0,0,0,0,0,0,0,0,0,0,0,0,0,0,0,0,0,0,0,0,0,0,0,0,0,0,0,0,0,0,0,0,0,0,0,0],"id":19,"left_children":[1,3,-1,5,7,9,11,13,15,-1,-1,17,-1,19,21,23,25,27,29,31,33,35,37,39,41,43,45,-1,-1,-1,-1,-1,-1,-1,-1,-1,-1,-1,-1,-1,-1,-1,-1,-1,-1,-1,-1],"loss_changes":[3.716183E3,2.193436E2,0E0,1.3293422E2,1.053942E2,6.9608154E0,1.2127922E1,1.1574707E2,1.1647567E2,0E0,0E0,2.0299675E1,0E0,1.0820471E2,8.76567E1,1.3145909E2,6.21458E1,4.7839355E0,8.910446E-1,3.7714798E1,2.3817566E1,1.9704962E0,3.547754E1,1.7170437E1,1.6214337E2,1.1741601E2,4.3297527E1,0E0,0E0,0E0,0E0,0E0,0E0,0E0,0E0,0E0,0E0,0E0,0E0,0E0,0E0,0E0,0E0,0E0,0E0,0E0,0E0],"parents":[2147483647,0,0,1,1,3,3,4,4,5,5,6,6,7,7,8,8,11,11,13,13,14,14,15,15,16,16,17,17,18,18,19,19,20,20,21,21,22,22,23,23,24,24,25,25,26,26],"right_children":[2,4,-1,6,8,10,12,14,16,-1,-1,18,-1,20,22,24,26,28,30,32,34,36,38,40,42,44,46,-1,-1,-1,-1,-1,-1,-1,-1,-1,-1,-1,-1,-1,-1,-1,-1,-1,-1,-1,-1],"split_conditions":[7.772E1,-1.23E0,2.1554487E0,2E0,2.82E0,1.15E0,1.772E1,1.19E0,7.3E-1,-4.182028E-1,-1.0062683E-1,1.671E1,-1.7019022E-1,3E0,4.11E0,9.4E-1,2E0,-2.34E0,3.9E-1,2.113E1,1.9E-1,1.73E0,1.68E0,1.344E1,1.01E0,1.54E0,2.5E2,-1.13835454E-1,-4.9950343E-2,-6.415558E-3,4.0903535E-2,-1.353268E-3,1.19784944E-1,2.51025E-1,-6.360847E-3,4.326601E-2,6.505678E-3,-7.63871E-2,1.0320119E-1,4.158247E-2,-7.1826935E-2,4.899323E-1,1.1988403E-1,-2.1835367E-1,1.1289763E-2,7.442833E-2,2.4177646E-3],"split_indices":[7,6,0,11,6,2,7,9,8,0,0,7,0,13,7,2,12,6,2,7,2,7,9,7,2,9,0,0,0,0,0,0,0,0,0,0,0,0,0,0,0,0,0,0,0,0,0],"split_type":[0,0,0,0,0,0,0,0,0,0,0,0,0,0,0,0,0,0,0,0,0,0,0,0,0,0,0,0,0,0,0,0,0,0,0,0,0,0,0,0,0,0,0,0,0,0,0],"sum_hessian":[3.94E2,3.93E2,1E0,2.8E1,3.65E2,4E0,2.4E1,2.08E2,1.57E2,3E0,1E0,2.1E1,3E0,9E1,1.18E2,4.3E1,1.14E2,1.7E1,4E0,8.4E1,6E0,2.3E1,9.5E1,2.4E1,1.9E1,2.5E1,8.9E1,9E0,8E0,1E0,3E0,7.8E1,6E0,5E0,1E0,1.8E1,5E0,9.3E1,2E0,2.1E1,3E0,3E0,1.6E1,7E0,1.8E1,3.2E1,5.7E1],"tree_param":{"num_deleted":"0","num_feature":"15","num_nodes":"47","size_leaf_vector":"1"}},{"base_weights":[-3.2726176E-2,2.1015623E0,-2.4243991E-1,-7.090017E-1,9.5294774E-1,2.3892252E-1,-1.6520363E0,-6.110958E-1,1.3594377E0,1.2383639E0,-2.1613365E-2,-3.1949885E0,-9.0283644E-1,-1.5747702E0,1.8972667E-1,1.093817E0,4.895824E0,4.6755183E-1,2.1218434E-1,1.8443045E-1,-7.4193543E-1,-2.0994205E0,-7.5874505E0,-1.2534031E-1,-1.8330464E0,-1.8801106E0,-5.703968E-1,-3.6079258E-1,1.2528198E0,3.0467849E0,6.658124E-1,3.6868903E-1,1.8134005E0,-3.7900556E-2,3.685441E-2,-4.942159E-2,1.3942467E-2,-4.7382857E-3,-6.9090776E-2,-1.806228E-1,-3.152558E-2,-4.488836E-1,-9.0722576E-2,-3.4485783E-2,1.24166004E-1,-9.479181E-2,2.3242503E-2,-1.0490482E-1,-4.087177E-2,-4.071003E-2,4.02537E-3,1.3696869E-2,-2.7685864E-2,1.0145451E-1,2.9471398E-3,2.7039764E-2,2.12285E-1,1.3155299E-2,9.647602E-2,5.8227303E-3,1.1701155E-1],"categories":[],"categories_nodes":[],"categories_segments":[],"categories_sizes":[],"default_left":[0,0,0,0,0,0,0,0,0,0,0,0,0,0,0,0,0,0,0,0,0,0,0,0,0,0,0,0,0,0,0,0,0,0,0,0,0,0,0,0,0,0,0,0,0,0,0,0,0,0,0,0,0,0,0,0,0,0,0,0,0],"id":20,"left_children":[1,-1,3,5,7,9,11,13,15,17,19,21,23,25,27,29,31,33,-1,35,37,39,41,43,45,47,49,51,53,55,57,-1,59,-1,-1,-1,-1,-1,-1,-1,-1,-1,-1,-1,-1,-1,-1,-1,-1,-1,-1,-1,-1,-1,-1,-1,-1,-1,-1,-1,-1],"loss_changes":[3.5563896E3,0E0,2.2432225E2,2.5873914E2,7.267254E1,3.7783363E1,1.6473248E2,1.8820345E1,7.918521E1,6.7512024E1,1.7353313E1,2.1024603E2,7.1370476E1,2.3010254E0,8.645553E0,6.902115E1,3.2457047E1,8.817064E0,0E0,1.0352995E1,1.0635934E1,8.440024E1,5.594214E1,8.268727E1,7.374069E0,1.3812637E-1,7.0032084E-1,1.3762347E0,4.514258E0,4.2770996E1,3.5624466E1,0E0,3.3034792E0,0E0,0E0,0E0,0E0,0E0,0E0,0E0,0E0,0E0,0E0,0E0,0E0,0E0,0E0,0E0,0E0,0E0,0E0,0E0,0E0,0E0,0E0,0E0,0E0,0E0,0E0,0E0,0E0],"parents":[2147483647,0,0,2,2,3,3,4,4,5,5,6,6,7,7,8,8,9,9,10,10,11,11,12,12,13,13,14,14,15,15,16,16,17,17,19,19,20,20,21,21,22,22,23,23,24,24,25,25,26,26,27,27,28,28,29,29,30,30,32,32],"right_children":[2,-1,4,6,8,10,12,14,16,18,20,22,24,26,28,30,32,34,-1,36,38,40,42,44,46,48,50,52,54,56,58,-1,60,-1,-1,-1,-1,-1,-1,-1,-1,-1,-1,-1,-1,-1,-1,-1,-1,-1,-1,-1,-1,-1,-1,-1,-1,-1,-1,-1,-1],"split_conditions":[-3.29E0,2.1015623E0,1.55E0,6E0,6.01E2,2.1E-1,2.6E0,1.2E1,1.37E0,5E0,6.7E-1,5.929E3,2.415E3,3E1,3.92E0,3E2,1.61E0,1.3E1,2.1218434E-1,2.7E1,1E0,2E0,3E0,3.1E1,3.74E0,9E0,1.23E0,7E0,4.13E0,5E0,4.25E0,3.6868903E-1,1.69E0,-3.7900556E-2,3.685441E-2,-4.942159E-2,1.3942467E-2,-4.7382857E-3,-6.9090776E-2,-1.806228E-1,-3.152558E-2,-4.488836E-1,-9.0722576E-2,-3.4485783E-2,1.24166004E-1,-9.479181E-2,2.3242503E-2,-1.0490482E-1,-4.087177E-2,-4.071003E-2,4.02537E-3,1.3696869E-2,-2.7685864E-2,1.0145451E-1,2.9471398E-3,2.7039764E-2,2.12285E-1,1.3155299E-2,9.647602E-2,5.8227303E-3,1.1701155E-1],"split_indices":[8,0,9,10,3,2,5,14,2,10,2,3,3,11,5,1,2,14,0,3,13,12,12,14,5,4,2,4,5,10,5,0,2,0,0,0,0,0,0,0,0,0,0,0,0,0,0,0,0,0,0,0,0,0,0,0,0,0,0,0,0],"split_type":[0,0,0,0,0,0,0,0,0,0,0,0,0,0,0,0,0,0,0,0,0,0,0,0,0,0,0,0,0,0,0,0,0,0,0,0,0,0,0,0,0,0,0,0,0,0,0,0,0,0,0,0,0,0,0,0,0,0,0,0,0],"sum_hessian":[4.01E2,1E0,4E2,2.88E2,1.12E2,1.44E2,1.44E2,2.3E1,8.9E1,2.9E1,1.15E2,4.6E1,9.8E1,1E1,1.3E1,8.4E1,5E0,2.4E1,5E0,9E1,2.5E1,3.8E1,8E0,5.4E1,4.4E1,7E0,3E0,9E0,4E0,1.4E1,7E1,2E0,3E0,4E0,2E1,6E0,8.4E1,1.3E1,1.2E1,1.8E1,2E1,6E0,2E0,4.5E1,9E0,4.3E1,1E0,5E0,2E0,2E0,1E0,2E0,7E0,2E0,2E0,5E0,9E0,5.4E1,1.6E1,1E0,2E0],"tree_param":{"num_deleted":"0","num_feature":"15","num_nodes":"61","size_leaf_vector":"1"}},{"base_weights":[2.0131089E-1,2.0490232E0,-1.0643943E-3,-2.6319754E0,2.2464664E-1,-4.7660992E-1,-2.1018972E0,-1.5632912E0,4.623576E-1,-2.9196503E0,-1.1527758E0,-5.693378E0,1.6340944E-1,2.058713E-1,2.4878879E0,-3.7873466E0,-1.2629913E0,-1.3507669E0,1.5544116E-1,-1.9584719E0,-7.135728E0,4.732325E0,-4.7242063E-1,4.1467285E0,1.3721558E-1,1.8586067E0,6.1435647E0,-1.0960683E-2,-2.0797244E-1,2.4425978E-2,-1.0306498E-1,-2.7346566E-2,-8.6828604E-2,-2.6887367E-2,3.8545456E-2,-1.13796435E-1,-1.7216126E-2,-1.58446E-1,-4.2954895E-1,3.1037173E-1,7.674956E-3,-4.3134145E-2,1.5987067E-1,4.285851E-2,4.3262407E-1,1.5832584E-1,3.103328E-3,-2.2617403E-2,1.24909244E-1,4.6682837E-3,3.8163868E-1],"categories":[],"categories_nodes":[],"categories_segments":[],"categories_sizes":[],"default_left":[0,0,0,0,0,0,0,0,0,0,0,0,0,0,0,0,0,0,0,0,0,0,0,0,0,0,0,0,0,0,0,0,0,0,0,0,0,0,0,0,0,0,0,0,0,0,0,0,0,0,0],"id":21,"left_children":[1,-1,3,5,7,-1,9,11,13,15,17,19,21,23,25,27,29,31,33,35,37,39,41,43,45,47,49,-1,-1,-1,-1,-1,-1,-1,-1,-1,-1,-1,-1,-1,-1,-1,-1,-1,-1,-1,-1,-1,-1,-1,-1],"loss_changes":[3.3423838E3,0E0,2.4049684E2,9.700931E1,1.5925243E2,0E0,2.0694855E1,3.1471295E2,1.7092966E2,1.8216248E1,4.354208E0,5.6056427E1,9.519738E1,7.897634E1,7.369812E1,1.2365295E1,1.07947035E1,3.3919487E0,1.69446E0,1.7784595E0,2.4730194E1,2.6064232E1,4.4292088E1,6.669302E1,6.5821686E1,4.990525E1,4.4337402E1,0E0,0E0,0E0,0E0,0E0,0E0,0E0,0E0,0E0,0E0,0E0,0E0,0E0,0E0,0E0,0E0,0E0,0E0,0E0,0E0,0E0,0E0,0E0,0E0],"parents":[2147483647,0,0,2,2,3,3,4,4,6,6,7,7,8,8,9,9,10,10,11,11,12,12,13,13,14,14,15,15,16,16,17,17,18,18,19,19,20,20,21,21,22,22,23,23,24,24,25,25,26,26],"right_children":[2,-1,4,6,8,-1,10,12,14,16,18,20,22,24,26,28,30,32,34,36,38,40,42,44,46,48,50,-1,-1,-1,-1,-1,-1,-1,-1,-1,-1,-1,-1,-1,-1,-1,-1,-1,-1,-1,-1,-1,-1,-1,-1],"split_conditions":[-3.29E0,2.0490232E0,-1.23E0,1.45E0,1E0,-4.7660992E-1,2.4E0,2.5E0,6.38E0,1.15E0,1.833E3,6.5E-1,6.7E-1,-7.8E-1,4.43E0,-6.18E0,9.3E1,1.68E2,7.7E-1,1.22E0,1.1E0,1.19E3,9.9E-1,8.4E-1,1.1E-1,1.6E0,1.5E2,-1.0960683E-2,-2.0797244E-1,2.4425978E-2,-1.0306498E-1,-2.7346566E-2,-8.6828604E-2,-2.6887367E-2,3.8545456E-2,-1.13796435E-1,-1.7216126E-2,-1.58446E-1,-4.2954895E-1,3.1037173E-1,7.674956E-3,-4.3134145E-2,1.5987067E-1,4.285851E-2,4.3262407E-1,1.5832584E-1,3.103328E-3,-2.2617403E-2,1.24909244E-1,4.6682837E-3,3.8163868E-1],"split_indices":[8,0,6,5,12,0,5,5,6,2,3,8,8,8,5,6,3,3,2,2,9,3,8,2,2,9,0,0,0,0,0,0,0,0,0,0,0,0,0,0,0,0,0,0,0,0,0,0,0,0,0],"split_type":[0,0,0,0,0,0,0,0,0,0,0,0,0,0,0,0,0,0,0,0,0,0,0,0,0,0,0,0,0,0,0,0,0,0,0,0,0,0,0,0,0,0,0,0,0,0,0,0,0,0,0],"sum_hessian":[4.04E2,1E0,4.03E2,3.1E1,3.72E2,1E0,3E1,4.3E1,3.29E2,1.5E1,1.5E1,1.2E1,3.1E1,2.93E2,3.6E1,9E0,6E0,1.3E1,2E0,4E0,8E0,3E0,2.8E1,4E0,2.89E2,3.2E1,4E0,1E0,8E0,2E0,4E0,5E0,8E0,1E0,1E0,3E0,1E0,3E0,5E0,2E0,1E0,2.6E1,2E0,3E0,1E0,6E0,2.83E2,7E0,2.5E1,1E0,3E0],"tree_param":{"num_deleted":"0","num_feature":"15","num_nodes":"51","size_leaf_vector":"1"}},{"base_weights":[2.6504665E-3,-2.0119967E-1,1.9977976E0,-3.1939683E0,1.1370309E-2,-4.951877E0,-1.0551455E0,-3.2933903E-1,8.208414E-1,-3.6747546E0,-4.2048708E-1,-9.459887E-2,-4.7300062E-1,-2.0684543E-1,-4.1467195E0,2.221741E-1,1.6058456E0,-1.9243534E-1,-4.403207E-2,-9.653393E-1,4.167283E-2,3.5156596E-1,-7.7700394E-1,-3.345817E-1,-1.2814442E0,6.909569E-1,-7.4829423E-1,2.6214746E-1,3.1208594E0,2.1033574E-2,-8.01939E-2,1.8767696E-3,2.5286663E-1,-2.784426E-1,-3.2690626E-2,-1.7344944E-2,-8.944207E-2,2.6442776E-2,1.06961586E-1,-1.0747838E-1,5.294148E-3,-4.6096286E-3,1.1170328E-1,4.6067763E-2,2.4385E-1],"categories":[],"categories_nodes":[],"categories_segments":[],"categories_sizes":[],"default_left":[0,0,0,0,0,0,0,0,0,0,0,0,0,0,0,0,0,0,0,0,0,0,0,0,0,0,0,0,0,0,0,0,0,0,0,0,0,0,0,0,0,0,0,0,0],"id":22,"left_children":[1,3,-1,5,7,9,11,13,15,17,-1,-1,19,21,23,25,27,-1,-1,29,-1,31,33,-1,35,37,39,41,43,-1,-1,-1,-1,-1,-1,-1,-1,-1,-1,-1,-1,-1,-1,-1,-1],"loss_changes":[3.208822E3,2.4941603E2,0E0,9.253131E1,1.0148686E2,3.0921875E1,5.43814E0,1.2025188E2,5.0868454E1,2.4431763E0,0E0,0E0,6.593544E0,8.0505684E1,4.9760086E1,2.9178188E1,9.4860794E1,0E0,0E0,6.869855E0,0E0,1.8896275E2,7.014833E1,0E0,1.7503805E0,8.96365E0,2.536325E1,1.8372932E1,8.048459E1,0E0,0E0,0E0,0E0,0E0,0E0,0E0,0E0,0E0,0E0,0E0,0E0,0E0,0E0,0E0,0E0],"parents":[2147483647,0,0,1,1,3,3,4,4,5,5,6,6,7,7,8,8,9,9,12,12,13,13,14,14,15,15,16,16,19,19,21,21,22,22,24,24,25,25,26,26,27,27,28,28],"right_children":[2,4,-1,6,8,10,12,14,16,18,-1,-1,20,22,24,26,28,-1,-1,30,-1,32,34,-1,36,38,40,42,44,-1,-1,-1,-1,-1,-1,-1,-1,-1,-1,-1,-1,-1,-1,-1,-1],"split_conditions":[7.772E1,-1.23E0,1.9977976E0,2.47E0,3.5E0,1.3582E4,1.4E1,9.26E0,7.8E-1,-1.55E0,-4.2048708E-1,-9.459887E-2,7.83E2,6E0,1.121E1,1.127E1,1.4E1,-1.9243534E-1,-4.403207E-2,7E1,4.167283E-2,1.099E1,2.05E0,-3.345817E-1,1.934E1,5.62E0,1E3,4.22E0,7.38E0,2.1033574E-2,-8.01939E-2,1.8767696E-3,2.5286663E-1,-2.784426E-1,-3.2690626E-2,-1.7344944E-2,-8.944207E-2,2.6442776E-2,1.06961586E-1,-1.0747838E-1,5.294148E-3,-4.6096286E-3,1.1170328E-1,4.6067763E-2,2.4385E-1],"split_indices":[7,6,0,5,5,3,14,6,2,6,0,0,3,10,6,7,14,0,0,3,0,7,5,0,7,6,1,5,6,0,0,0,0,0,0,0,0,0,0,0,0,0,0,0,0],"split_type":[0,0,0,0,0,0,0,0,0,0,0,0,0,0,0,0,0,0,0,0,0,0,0,0,0,0,0,0,0,0,0,0,0,0,0,0,0,0,0,0,0,0,0,0,0],"sum_hessian":[3.92E2,3.91E2,1E0,2.5E1,3.66E2,1.3E1,1.2E1,2.58E2,1.08E2,1.1E1,2E0,4E0,8E0,2.51E2,7E0,6.2E1,4.6E1,1E1,1E0,6E0,2E0,1.27E2,1.24E2,3E0,4E0,4.2E1,2E1,2.5E1,2.1E1,2E0,4E0,1.2E2,7E0,2E0,1.22E2,2E0,2E0,3.9E1,3E0,7E0,1.3E1,2.2E1,3E0,1E1,1.1E1],"tree_param":{"num_deleted":"0","num_feature":"15","num_nodes":"45","size_leaf_vector":"1"}},{"base_weights":[1.3645738E-1,-5.464249E-2,1.9478527E0,-2.4146137E0,1.5318067E-1,-5.405542E0,-1.4014583E0,-1.9582407E-1,1.0524864E0,-1.5361822E-1,-4.135025E-1,-1.9516805E0,-5.968922E-1,3.3559588E-1,-1.2506722E0,7.7216005E-1,3.1606696E0,-2.1671367E0,-3.6747643E-1,-1.7134925E0,1.7559454E-1,2.6578076E0,1.5497844E-1,-2.8779895E0,-7.8126925E-1,1.087992E0,-2.501032E-1,5.7137213E0,5.2081525E-1,-3.263443E-2,-1.2781012E-1,-2.2325536E-2,-5.235195E-3,-1.3617843E-2,-1.0028436E-1,4.2186014E-2,-3.5173062E-2,2.2998057E-1,1.6815847E-2,1.6162336E-1,2.0721196E-3,-2.256228E-1,4.0104263E-2,-6.946898E-2,4.346433E-2,2.473623E-2,1.2069197E-1,-3.9712887E-2,2.0786256E-2,1.4622039E-1,3.7641162E-1,9.523608E-2,-4.9664743E-2],"categories":[],"categories_nodes":[],"categories_segments":[],"categories_sizes":[],"default_left":[0,0,0,0,0,0,0,0,0,0,0,0,0,0,0,0,0,0,0,0,0,0,0,0,0,0,0,0,0,0,0,0,0,0,0,0,0,0,0,0,0,0,0,0,0,0,0,0,0,0,0,0,0],"id":23,"left_children":[1,3,-1,5,7,9,11,13,15,-1,-1,17,19,21,23,25,27,29,31,33,35,37,39,41,43,45,47,49,51,-1,-1,-1,-1,-1,-1,-1,-1,-1,-1,-1,-1,-1,-1,-1,-1,-1,-1,-1,-1,-1,-1,-1,-1],"loss_changes":[3.0289224E3,1.9998573E2,0E0,9.242345E1,1.1790434E2,2.8058624E1,1.0345001E1,1.5233348E2,5.9612297E1,0E0,0E0,4.3235283E0,1.0651587E1,7.550528E1,6.726346E1,3.0621265E1,7.790041E1,5.9914513E0,1.55527E-2,1.5592003E0,5.292083E0,5.7055504E1,5.8915634E1,1.2391855E2,7.347562E1,5.5439728E1,8.663403E0,8.351822E0,1.6559656E1,0E0,0E0,0E0,0E0,0E0,0E0,0E0,0E0,0E0,0E0,0E0,0E0,0E0,0E0,0E0,0E0,0E0,0E0,0E0,0E0,0E0,0E0,0E0,0E0],"parents":[2147483647,0,0,1,1,3,3,4,4,5,5,6,6,7,7,8,8,11,11,12,12,13,13,14,14,15,15,16,16,17,17,18,18,19,19,20,20,21,21,22,22,23,23,24,24,25,25,26,26,27,27,28,28],"right_children":[2,4,-1,6,8,10,12,14,16,-1,-1,18,20,22,24,26,28,30,32,34,36,38,40,42,44,46,48,50,52,-1,-1,-1,-1,-1,-1,-1,-1,-1,-1,-1,-1,-1,-1,-1,-1,-1,-1,-1,-1,-1,-1,-1,-1],"split_conditions":[7.772E1,-1.23E0,1.9478527E0,2E0,3.5E0,1.662E1,1.9E1,1.523E1,1.32E0,-1.5361822E-1,-4.135025E-1,3.06E0,1.584E1,2E-1,2.64E0,9.4E-1,7.1E-1,8.7E-1,1.5E2,2.5E2,9.7E-1,-1E-2,-7.8E-1,1.23E0,3.73E0,1.53E1,2.3E1,5.8E-1,2.5E1,-3.263443E-2,-1.2781012E-1,-2.2325536E-2,-5.235195E-3,-1.3617843E-2,-1.0028436E-1,4.2186014E-2,-3.5173062E-2,2.2998057E-1,1.6815847E-2,1.6162336E-1,2.0721196E-3,-2.256228E-1,4.0104263E-2,-6.946898E-2,4.346433E-2,2.473623E-2,1.2069197E-1,-3.9712887E-2,2.0786256E-2,1.4622039E-1,3.7641162E-1,9.523608E-2,-4.9664743E-2],"split_indices":[7,6,0,11,5,7,14,7,2,0,0,5,7,2,5,8,8,8,0,0,8,6,8,2,6,7,14,8,11,0,0,0,0,0,0,0,0,0,0,0,0,0,0,0,0,0,0,0,0,0,0,0,0],"split_type":[0,0,0,0,0,0,0,0,0,0,0,0,0,0,0,0,0,0,0,0,0,0,0,0,0,0,0,0,0,0,0,0,0,0,0,0,0,0,0,0,0,0,0,0,0,0,0,0,0,0,0,0,0],"sum_hessian":[4.07E2,4.06E2,1E0,3.2E1,3.74E2,7E0,2.5E1,2.7E2,1.04E2,5E0,2E0,1.4E1,1.1E1,1.8E2,9E1,9.3E1,1.1E1,1.2E1,2E0,4E0,7E0,1.2E1,1.68E2,1.9E1,7.1E1,7.1E1,2.2E1,5E0,6E0,3E0,9E0,1E0,1E0,1E0,3E0,4E0,3E0,6E0,6E0,5E0,1.63E2,1.3E1,6E0,5.2E1,1.9E1,5E1,2.1E1,1.2E1,1E1,3E0,2E0,3E0,3E0],"tree_param":{"num_deleted":"0","num_feature":"15","num_nodes":"53","size_leaf_vector":"1"}},{"base_weights":[1.0041956E-1,-8.507146E-2,1.8991562E0,-5.078567E-1,9.373685E-1,-3.6936183E0,-2.4542321E-1,2.709893E-1,1.8336269E0,-5.367616E0,-1.1480595E0,-3.6863202E-1,2.982548E0,7.3209924E-1,-4.904857E-1,5.671324E-1,3.477318E0,-1.5609117E0,-3.443025E-1,8.857377E-2,-2.0993776E0,1.5976655E-1,-1.3516994E0,9.9458015E-1,4.1420965E0,6.005484E-1,1.6380861E0,1.0827509E0,-1.0952561E0,2.4323676E0,-2.2169705E-1,-5.044508E-1,3.9007175E0,-8.954685E-2,-1.6020259E-2,8.82116E-3,-1.22484766E-1,1.21101916E-1,-2.9391858E-3,-1.8945168E-1,-3.494041E-2,5.8677117E-3,7.701397E-2,2.3540178E-1,3.281E-2,3.4894396E-2,2.2140315E-2,1.020229E-1,7.149577E-4,-4.576187E-2,1.2322956E-1,-1.3576297E-1,-2.6027573E-2,2.8968654E-3,1.5512498E-1,1.3609237E-2,-4.826623E-2,-4.5619607E-3,-3.327185E-2,2.8989273E-1,1.21659674E-1],"categories":[],"categories_nodes":[],"categories_segments":[],"categories_sizes":[],"default_left":[0,0,0,0,0,0,0,0,0,0,0,0,0,0,0,0,0,0,0,0,0,0,0,0,0,0,0,0,0,0,0,0,0,0,0,0,0,0,0,0,0,0,0,0,0,0,0,0,0,0,0,0,0,0,0,0,0,0,0,0,0],"id":24,"left_children":[1,3,-1,5,7,9,11,13,15,17,19,21,23,25,27,29,31,33,-1,-1,35,37,39,41,43,45,47,49,51,53,55,57,59,-1,-1,-1,-1,-1,-1,-1,-1,-1,-1,-1,-1,-1,-1,-1,-1,-1,-1,-1,-1,-1,-1,-1,-1,-1,-1,-1,-1],"loss_changes":[2.8842607E3,1.7727553E2,0E0,2.4154816E2,7.1172844E1,8.758539E1,1.0808464E2,2.493774E1,1.0419592E2,6.439447E1,3.1493061E1,1.3527332E2,1.89318E1,4.260315E0,2.6874956E1,4.4679825E1,3.9057037E1,8.529148E-1,0E0,0E0,6.810211E0,8.4193794E1,1.4216174E2,2.2127495E0,8.747429E0,3.051529E-1,3.2376547E0,2.4342896E1,1.7207037E1,1.4140888E1,8.342556E0,1.3885015E-1,4.1574554E1,0E0,0E0,0E0,0E0,0E0,0E0,0E0,0E0,0E0,0E0,0E0,0E0,0E0,0E0,0E0,0E0,0E0,0E0,0E0,0E0,0E0,0E0,0E0,0E0,0E0,0E0,0E0,0E0],"parents":[2147483647,0,0,1,1,3,3,4,4,5,5,6,6,7,7,8,8,9,9,10,10,11,11,12,12,13,13,14,14,15,15,16,16,17,17,20,20,21,21,22,22,23,23,24,24,25,25,26,26,27,27,28,28,29,29,30,30,31,31,32,32],"right_children":[2,4,-1,6,8,10,12,14,16,18,20,22,24,26,28,30,32,34,-1,-1,36,38,40,42,44,46,48,50,52,54,56,58,60,-1,-1,-1,-1,-1,-1,-1,-1,-1,-1,-1,-1,-1,-1,-1,-1,-1,-1,-1,-1,-1,-1,-1,-1,-1,-1,-1,-1],"split_conditions":[2.498E1,3.46E0,1.8991562E0,1E0,7.8E-1,2.48E0,1.961E1,1.127E1,5E3,6.5E-1,1.5E2,1.489E1,2.19E0,3E0,1.5E2,9.7E-1,8.7E-1,1.22E0,-3.443025E-1,8.857377E-2,1.252E1,2E-1,2.6E0,1.09E0,1.337E3,2.2E1,2.7E-1,1.47E0,1E3,8.53E0,1.75E0,1.5E2,7.1E-1,-8.954685E-2,-1.6020259E-2,8.82116E-3,-1.22484766E-1,1.21101916E-1,-2.9391858E-3,-1.8945168E-1,-3.494041E-2,5.8677117E-3,7.701397E-2,2.3540178E-1,3.281E-2,3.4894396E-2,2.2140315E-2,1.020229E-1,7.149577E-4,-4.576187E-2,1.2322956E-1,-1.3576297E-1,-2.6027573E-2,2.8968654E-3,1.5512498E-1,1.3609237E-2,-4.826623E-2,-4.5619607E-3,-3.327185E-2,2.8989273E-1,1.21659674E-1],"split_indices":[7,5,0,12,2,5,7,7,1,8,0,7,5,13,0,2,2,2,0,0,7,2,5,2,3,14,2,9,1,7,9,0,8,0,0,0,0,0,0,0,0,0,0,0,0,0,0,0,0,0,0,0,0,0,0,0,0,0,0,0,0],"split_type":[0,0,0,0,0,0,0,0,0,0,0,0,0,0,0,0,0,0,0,0,0,0,0,0,0,0,0,0,0,0,0,0,0,0,0,0,0,0,0,0,0,0,0,0,0,0,0,0,0,0,0,0,0,0,0,0,0,0,0,0,0],"sum_hessian":[4.09E2,4.08E2,1E0,2.89E2,1.19E2,2.1E1,2.68E2,6.9E1,5E1,1.2E1,9E0,2.59E2,9E0,4.3E1,2.6E1,2.9E1,2.1E1,4E0,8E0,2E0,7E0,1.69E2,9E1,4E0,5E0,3.9E1,4E0,7E0,1.9E1,8E0,2.1E1,2E0,1.9E1,3E0,1E0,1E0,6E0,1.4E1,1.55E2,1.8E1,7.2E1,2E0,2E0,4E0,1E0,2.2E1,1.7E1,3E0,1E0,3E0,4E0,4E0,1.5E1,2E0,6E0,1.3E1,8E0,1E0,1E0,7E0,1.2E1],"tree_param":{"num_deleted":"0","num_feature":"15","num_nodes":"61","size_leaf_vector":"1"}},{"base_weights":[8.864784E-2,1.8516773E0,-9.267188E-2,-1.0298586E0,4.7959822E-1,-1.6031586E0,5.0067073E-1,7.889057E-2,1.3996809E0,7.7310336E-1,-2.0320082E0,-2.3288181E-1,2.9446824E0,8.597197E-1,-2.160288E-1,4.1151974E-1,1.2015084E0,1.653891E-1,4.5648765E-2,-4.572956E0,-1.6145756E0,2.1325527E-1,-1.1851007E0,-8.2959425E-1,2.3403715E-1,3.6409576E0,4.609209E-1,-1.3086277E0,2.1633491E-1,1.8129778E0,8.852605E-2,-2.1035304E-2,2.5314877E-2,-4.1360983E-1,-1.3179822E-1,-1.6297856E-1,-5.072522E-2,-5.380264E-2,2.2434138E-2,-7.07445E-2,2.7819777E-2,6.770227E-2,-1.00441135E-1,5.347884E-3,2.163183E-1,1.7016169E-3,5.6845922E-2,-3.371753E-2,-9.070229E-2,-1.2826872E-2,3.374244E-2,5.4774727E-3,1.1812401E-1,-8.611921E-2,2.7854426E-2],"categories":[],"categories_nodes":[],"categories_segments":[],"categories_sizes":[],"default_left":[0,0,0,0,0,0,0,0,0,0,0,0,0,0,0,0,0,0,0,0,0,0,0,0,0,0,0,0,0,0,0,0,0,0,0,0,0,0,0,0,0,0,0,0,0,0,0,0,0,0,0,0,0,0,0],"id":25,"left_children":[1,-1,3,5,7,9,11,13,15,17,19,21,23,25,27,-1,29,-1,31,33,35,37,39,41,-1,43,45,47,49,51,53,-1,-1,-1,-1,-1,-1,-1,-1,-1,-1,-1,-1,-1,-1,-1,-1,-1,-1,-1,-1,-1,-1,-1,-1],"loss_changes":[2.7432568E3,0E0,2.1931409E2,1.3680777E2,9.3535355E1,1.1672464E2,7.777663E1,4.1175854E1,9.434288E1,3.303855E1,9.4441315E1,1.4696613E1,6.9406845E1,5.2670376E1,6.1695118E1,0E0,5.156167E1,0E0,3.4353895E0,7.134494E1,7.961076E1,7.767732E0,5.189186E0,1.3020076E1,0E0,1.4070656E1,1.2658636E1,1.063797E1,2.0554064E1,4.5607056E1,2.4718208E1,0E0,0E0,0E0,0E0,0E0,0E0,0E0,0E0,0E0,0E0,0E0,0E0,0E0,0E0,0E0,0E0,0E0,0E0,0E0,0E0,0E0,0E0,0E0,0E0],"parents":[2147483647,0,0,2,2,3,3,4,4,5,5,6,6,7,7,8,8,9,9,10,10,11,11,12,12,13,13,14,14,16,16,18,18,19,19,20,20,21,21,22,22,23,23,25,25,26,26,27,27,28,28,29,29,30,30],"right_children":[2,-1,4,6,8,10,12,14,16,18,20,22,24,26,28,-1,30,-1,32,34,36,38,40,42,-1,44,46,48,50,52,54,-1,-1,-1,-1,-1,-1,-1,-1,-1,-1,-1,-1,-1,-1,-1,-1,-1,-1,-1,-1,-1,-1,-1,-1],"split_conditions":[-3.29E0,1.8516773E0,3E0,3.3E0,3.58E0,2.9E-1,3.1E1,2.21E0,8.1E-1,-4.5E-1,2E0,1.31E0,1.02E0,1.9E-1,8.3E-1,4.1151974E-1,9.3E-1,1.653891E-1,1.8E1,1E3,1E0,3.36E0,1E3,2.5E2,2.3403715E-1,9E-2,1E0,6.9E-1,2E1,7.12E2,9.8E-1,-2.1035304E-2,2.5314877E-2,-4.1360983E-1,-1.3179822E-1,-1.6297856E-1,-5.072522E-2,-5.380264E-2,2.2434138E-2,-7.07445E-2,2.7819777E-2,6.770227E-2,-1.00441135E-1,5.347884E-3,2.163183E-1,1.7016169E-3,5.6845922E-2,-3.371753E-2,-9.070229E-2,-1.2826872E-2,3.374244E-2,5.4774727E-3,1.1812401E-1,-8.611921E-2,2.7854426E-2],"split_indices":[8,0,12,5,6,2,14,5,5,6,11,2,2,2,6,0,8,0,14,0,12,5,0,0,0,2,9,2,14,3,8,0,0,0,0,0,0,0,0,0,0,0,0,0,0,0,0,0,0,0,0,0,0,0,0],"split_type":[0,0,0,0,0,0,0,0,0,0,0,0,0,0,0,0,0,0,0,0,0,0,0,0,0,0,0,0,0,0,0,0,0,0,0,0,0,0,0,0,0,0,0,0,0,0,0,0,0,0,0,0,0,0,0],"sum_hessian":[4.08E2,1E0,4.07E2,1.54E2,2.53E2,1.12E2,4.2E1,1.77E2,7.6E1,1.7E1,9.5E1,3.3E1,9E0,4.8E1,1.29E2,1E0,7.5E1,3E0,1.4E1,1.2E1,8.3E1,2.3E1,1E1,3E0,6E0,5E0,4.3E1,3.6E1,9.3E1,4.8E1,2.7E1,7E0,7E0,3E0,9E0,2.1E1,6.2E1,3E0,2E1,9E0,1E0,1E0,2E0,1E0,4E0,2.7E1,1.6E1,1.7E1,1.9E1,4.6E1,4.7E1,1.2E1,3.6E1,5E0,2.2E1],"tree_param":{"num_deleted":"0","num_feature":"15","num_nodes":"55","size_leaf_vector":"1"}},{"base_weights":[1.9665742E-1,1.8053856E0,1.2936071E-2,-9.8211735E-1,4.0949497E-1,6.9927096E-1,-1.4733125E0,1.1121483E0,9.39035E-2,-1.0790063E-1,4.1109715E0,-2.0828345E0,-5.933414E-1,4.0104684E-1,2.9620793E0,-1.4013761E-1,9.4981843E-1,-7.1547747E-1,3.677662E-1,2.2750495E-1,5.8861565E-2,-2.9188815E-1,-2.2711573E0,1.7405186E0,-9.2897654E-1,-3.5218826E-1,7.5143075E-1,5.171689E0,3.214955E-1,1.9063338E0,-2.3598331E-1,3.6137882E-1,2.3908026E0,9.195089E-4,-3.9953083E-2,2.3627551E-2,-2.2241289E-2,-4.8530843E-2,3.5518978E-2,-1.2710892E-1,-4.372473E-2,-6.9550076E-4,1.457387E-1,-6.3911065E-2,1.0542006E-4,-2.756113E-3,-5.4283317E-2,4.226216E-2,-1.9900208E-2,4.4558167E-1,1.5792714E-1,-2.5811065E-2,1.5033598E-1,-2.1264374E-2,1.8806858E-1,-3.8840808E-2,9.266381E-3,-2.0864038E-2,3.4944434E-2,1.5560825E-1,8.501855E-3],"categories":[],"categories_nodes":[],"categories_segments":[],"categories_sizes":[],"default_left":[0,0,0,0,0,0,0,0,0,0,0,0,0,0,0,0,0,0,0,0,0,0,0,0,0,0,0,0,0,0,0,0,0,0,0,0,0,0,0,0,0,0,0,0,0,0,0,0,0,0,0,0,0,0,0,0,0,0,0,0,0],"id":26,"left_children":[1,-1,3,5,7,9,11,13,15,17,19,21,23,25,27,29,31,33,35,-1,-1,37,39,41,43,45,47,49,51,53,55,57,59,-1,-1,-1,-1,-1,-1,-1,-1,-1,-1,-1,-1,-1,-1,-1,-1,-1,-1,-1,-1,-1,-1,-1,-1,-1,-1,-1,-1],"loss_changes":[2.5924004E3,0E0,1.550843E2,9.352989E1,6.2207706E1,7.20431E1,4.5427658E1,1.13259575E2,3.919537E1,6.62122E0,1.0848999E0,1.6538116E1,3.059994E1,1.7155619E1,1.3836919E2,3.0656265E1,3.4749165E1,6.2809277E-1,1.317118E0,0E0,0E0,4.7711134E0,1.5189041E1,1.0341282E1,1.07335205E1,4.515875E0,5.080986E0,6.972995E1,2.854562E1,3.1876385E1,3.3867065E1,8.438595E0,1.8694542E1,0E0,0E0,0E0,0E0,0E0,0E0,0E0,0E0,0E0,0E0,0E0,0E0,0E0,0E0,0E0,0E0,0E0,0E0,0E0,0E0,0E0,0E0,0E0,0E0,0E0,0E0,0E0,0E0],"parents":[2147483647,0,0,2,2,3,3,4,4,5,5,6,6,7,7,8,8,9,9,10,10,11,11,12,12,13,13,14,14,15,15,16,16,17,17,18,18,21,21,22,22,23,23,24,24,25,25,26,26,27,27,28,28,29,29,30,30,31,31,32,32],"right_children":[2,-1,4,6,8,10,12,14,16,18,20,22,24,26,28,30,32,34,36,-1,-1,38,40,42,44,46,48,50,52,54,56,58,60,-1,-1,-1,-1,-1,-1,-1,-1,-1,-1,-1,-1,-1,-1,-1,-1,-1,-1,-1,-1,-1,-1,-1,-1,-1,-1,-1,-1],"split_conditions":[-9.98E0,1.8053856E0,8.5E-1,1.08E0,7.2E-1,8.1E-1,2E1,9.6E-1,9.475E3,2.7E-1,1.05E0,6E-1,3E2,5.17E2,1.8E1,1.06E0,8.4E-1,1.6E1,1E4,2.2750495E-1,5.8861565E-2,2.71E0,3.26E0,1.05E0,9.3E-1,2.26E0,8.05E0,1.2E0,1.88E0,8.8E1,3.14E0,2E1,1E3,9.195089E-4,-3.9953083E-2,2.3627551E-2,-2.2241289E-2,-4.8530843E-2,3.5518978E-2,-1.2710892E-1,-4.372473E-2,-6.9550076E-4,1.457387E-1,-6.3911065E-2,1.0542006E-4,-2.756113E-3,-5.4283317E-2,4.226216E-2,-1.9900208E-2,4.4558167E-1,1.5792714E-1,-2.5811065E-2,1.5033598E-1,-2.1264374E-2,1.8806858E-1,-3.8840808E-2,9.266381E-3,-2.0864038E-2,3.4944434E-2,1.5560825E-1,8.501855E-3],"split_indices":[6,0,6,5,8,5,14,2,3,6,5,8,1,3,11,6,2,3,1,0,0,5,5,2,8,6,6,9,2,3,5,14,1,0,0,0,0,0,0,0,0,0,0,0,0,0,0,0,0,0,0,0,0,0,0,0,0,0,0,0,0],"split_type":[0,0,0,0,0,0,0,0,0,0,0,0,0,0,0,0,0,0,0,0,0,0,0,0,0,0,0,0,0,0,0,0,0,0,0,0,0,0,0,0,0,0,0,0,0,0,0,0,0,0,0,0,0,0,0,0,0,0,0,0,0],"sum_hessian":[3.92E2,1E0,3.91E2,1.11E2,2.8E2,2.5E1,8.6E1,8.6E1,1.94E2,2.1E1,4E0,5E1,3.6E1,6.3E1,2.3E1,1.53E2,4.1E1,9E0,1.2E1,3E0,1E0,5E0,4.5E1,4E0,3.2E1,2E1,4.3E1,1.2E1,1.1E1,6E0,1.47E2,3E1,1.1E1,1E0,8E0,1.1E1,1E0,3E0,2E0,3.7E1,8E0,2E0,2E0,2.3E1,9E0,1.5E1,5E0,4E1,3E0,3E0,9E0,9E0,2E0,3E0,3E0,6.4E1,8.3E1,9E0,2.1E1,8E0,3E0],"tree_param":{"num_deleted":"0","num_feature":"15","num_nodes":"61","size_leaf_vector":"1"}},{"base_weights":[4.8198853E-2,-1.23834975E-1,1.7602509E0,-1.6247605E0,1.6970976E-1,-4.7390303E-1,-1.3621641E0,8.6546654E-1,-1.2835105E-1,2.1974006E0,-1.6899546E0,4.435957E-1,2.7072325E0,-6.155747E-1,3.5193738E-1,-2.3432374E-2,1.8237932E-1,-2.8657835E0,-1.3739567E0,4.8564783E-1,-7.721954E-2,-7.722373E-2,3.6009572E0,-4.2805988E-1,-2.973245E-1,1.4225924E0,1.2805806E-1,-1.6955364E-2,-1.5323266E-1,-5.35293E-2,-1.5422894E-1,5.7975005E-2,1.997297E-2,1.2893085E-1,3.5857794E-1,-2.8602306E-2,8.02629E-2,2.3543557E-2,2.1869631E-1,3.355711E-2,-1.8355597E-2],"categories":[],"categories_nodes":[],"categories_segments":[],"categories_sizes":[],"default_left":[0,0,0,0,0,0,0,0,0,0,0,0,0,0,0,0,0,0,0,0,0,0,0,0,0,0,0,0,0,0,0,0,0,0,0,0,0,0,0,0,0],"id":27,"left_children":[1,3,-1,5,7,-1,9,11,13,15,17,19,21,23,25,-1,-1,27,29,31,-1,-1,33,35,-1,37,39,-1,-1,-1,-1,-1,-1,-1,-1,-1,-1,-1,-1,-1,-1],"loss_changes":[2.484106E3,1.8047655E2,0E0,1.2525995E2,7.124167E1,0E0,8.072176E1,7.882877E1,5.661254E1,2.490702E1,1.8727661E1,7.8559475E0,7.775885E1,1.1740962E2,2.9060923E1,0E0,0E0,4.9905167E0,2.2645325E1,4.4153996E0,0E0,0E0,3.9913193E1,3.517234E1,0E0,5.6926228E1,2.7676119E1,0E0,0E0,0E0,0E0,0E0,0E0,0E0,0E0,0E0,0E0,0E0,0E0,0E0,0E0],"parents":[2147483647,0,0,1,1,3,3,4,4,6,6,7,7,8,8,9,9,10,10,11,11,12,12,13,13,14,14,17,17,18,18,19,19,22,22,23,23,25,25,26,26],"right_children":[2,4,-1,6,8,-1,10,12,14,16,18,20,22,24,26,-1,-1,28,30,32,-1,-1,34,36,-1,38,40,-1,-1,-1,-1,-1,-1,-1,-1,-1,-1,-1,-1,-1,-1],"split_conditions":[7.772E1,-1.8E-1,1.7602509E0,-9.98E0,7.2E-1,-4.7390303E-1,4.7E-1,1.099E1,3.23E0,1.2E-1,2E0,1.5E4,1E1,9.26E0,3E2,-2.3432374E-2,1.8237932E-1,7E0,-5.2E-1,9E0,-7.721954E-2,-7.722373E-2,4.39E0,2.136E1,-2.973245E-1,6.38E0,1.547E1,-1.6955364E-2,-1.5323266E-1,-5.35293E-2,-1.5422894E-1,5.7975005E-2,1.997297E-2,1.2893085E-1,3.5857794E-1,-2.8602306E-2,8.02629E-2,2.3543557E-2,2.1869631E-1,3.355711E-2,-1.8355597E-2],"split_indices":[7,6,0,6,8,0,9,7,5,5,11,1,4,6,1,0,0,4,6,4,0,0,5,7,0,6,7,0,0,0,0,0,0,0,0,0,0,0,0,0,0],"split_type":[0,0,0,0,0,0,0,0,0,0,0,0,0,0,0,0,0,0,0,0,0,0,0,0,0,0,0,0,0,0,0,0,0,0,0,0,0,0,0,0,0],"sum_hessian":[4.09E2,4.08E2,1E0,6.6E1,3.42E2,1E0,6.5E1,1.02E2,2.4E2,5E0,6E1,8.4E1,1.8E1,1.19E2,1.21E2,2E0,3E0,1.1E1,4.9E1,8.3E1,1E0,3E0,1.5E1,1.16E2,3E0,2E1,1.01E2,1E0,1E1,4.3E1,6E0,8E0,7.5E1,1.3E1,2E0,1.09E2,7E0,1.6E1,4E0,4.8E1,5.3E1],"tree_param":{"num_deleted":"0","num_feature":"15","num_nodes":"41","size_leaf_vector":"1"}},{"base_weights":[-4.5534214E-3,1.7162446E0,-1.8059017E-1,-8.921776E-1,2.2593994E-1,-1.4911915E0,6.7258775E-1,1.845523E-1,2.6225194E-1,-1.4751847E-1,-2.572971E0,1.6205267E0,-5.760335E-1,2.567303E0,1.1486715E-1,-1.0747153E0,2.0108369E-1,-2.1980774E0,-4.2941833E-1,3.746417E-1,2.550081E0,-1.1219372E0,1.0677035E0,-2.3588343E-1,6.3835125E0,-1.6790557E-1,6.3914037E-1,-7.92987E-2,-3.356349E-2,-1.758319E-4,1.19232975E-1,-1.6744456E-1,-7.488394E-2,4.0209796E-2,-5.867644E-3,2.0110722E-1,5.636369E-2,-1.10999346E-1,-3.1032601E-2,9.566439E-2,-6.689104E-3,1.338985E-2,-2.143764E-2,9.189453E-2,3.8686892E-1,1.6264254E-2,-3.884096E-2,3.7632223E-2,-1.3570938E-1],"categories":[],"categories_nodes":[],"categories_segments":[],"categories_sizes":[],"default_left":[0,0,0,0,0,0,0,0,0,0,0,0,0,0,0,0,0,0,0,0,0,0,0,0,0,0,0,0,0,0,0,0,0,0,0,0,0,0,0,0,0,0,0,0,0,0,0,0,0],"id":28,"left_children":[1,-1,3,5,7,9,11,13,-1,15,17,19,21,23,25,27,29,31,-1,33,35,37,39,41,43,45,47,-1,-1,-1,-1,-1,-1,-1,-1,-1,-1,-1,-1,-1,-1,-1,-1,-1,-1,-1,-1,-1,-1],"loss_changes":[2.3691072E3,0E0,1.1302145E2,1.3410187E2,5.0756462E1,1.4933691E2,4.8278145E1,4.08836E1,0E0,1.5407579E1,1.09664795E2,2.5681347E1,1.7349693E1,7.638858E1,3.5983856E1,1.616828E0,1.5644997E1,3.931601E1,0E0,2.419097E0,2.2693947E1,6.328264E0,5.3357506E0,6.005413E-1,4.242035E0,4.770175E1,3.4395226E1,0E0,0E0,0E0,0E0,0E0,0E0,0E0,0E0,0E0,0E0,0E0,0E0,0E0,0E0,0E0,0E0,0E0,0E0,0E0,0E0,0E0,0E0],"parents":[2147483647,0,0,2,2,3,3,4,4,5,5,6,6,7,7,9,9,10,10,11,11,12,12,13,13,14,14,15,15,16,16,17,17,19,19,20,20,21,21,22,22,23,23,24,24,25,25,26,26],"right_children":[2,-1,4,6,8,10,12,14,-1,16,18,20,22,24,26,28,30,32,-1,34,36,38,40,42,44,46,48,-1,-1,-1,-1,-1,-1,-1,-1,-1,-1,-1,-1,-1,-1,-1,-1,-1,-1,-1,-1,-1,-1],"split_conditions":[-3.29E0,1.7162446E0,3E0,3.3E0,2.2E0,6E0,1.65E0,-7.8E-1,2.6225194E-1,6E1,1.03E0,1.03E0,1.91E0,-9.9E-1,1.57E0,2E0,5E0,1.3E1,-4.2941833E-1,5E2,1.2E1,3.48E0,1.04E0,9E0,1.5E2,6E0,1.35E0,-7.92987E-2,-3.356349E-2,-1.758319E-4,1.19232975E-1,-1.6744456E-1,-7.488394E-2,4.0209796E-2,-5.867644E-3,2.0110722E-1,5.636369E-2,-1.10999346E-1,-3.1032601E-2,9.566439E-2,-6.689104E-3,1.338985E-2,-2.143764E-2,9.189453E-2,3.8686892E-1,1.6264254E-2,-3.884096E-2,3.7632223E-2,-1.3570938E-1],"split_indices":[8,0,12,5,2,10,9,8,0,3,8,2,9,8,9,12,10,11,0,0,11,5,2,4,0,10,2,0,0,0,0,0,0,0,0,0,0,0,0,0,0,0,0,0,0,0,0,0,0],"split_type":[0,0,0,0,0,0,0,0,0,0,0,0,0,0,0,0,0,0,0,0,0,0,0,0,0,0,0,0,0,0,0,0,0,0,0,0,0,0,0,0,0,0,0,0,0,0,0,0,0],"sum_hessian":[3.9E2,1E0,3.89E2,1.41E2,2.48E2,1.02E2,3.9E1,2.47E2,1E0,4.6E1,5.6E1,2.2E1,1.7E1,6E0,2.41E2,1.2E1,3.4E1,5.4E1,2E0,1E1,1.2E1,1.3E1,4E0,4E0,2E0,1.57E2,8.4E1,4E0,8E0,3.2E1,2E0,1.9E1,3.5E1,5E0,5E0,5E0,7E0,3E0,1E1,2E0,2E0,1E0,3E0,1E0,1E0,8.7E1,7E1,8.2E1,2E0],"tree_param":{"num_deleted":"0","num_feature":"15","num_nodes":"49","size_leaf_vector":"1"}},{"base_weights":[1.5215477E-1,5.3215375E0,-6.8855123E-3,1.6733385E0,-2.7955344E-1,-7.200478E-1,3.8934308E-1,3.9664766E-1,-5.8516216E-2,-3.5305686E0,-4.0455696E-1,2.4270837E0,2.5927815E-1,2.6121845E-2,1.7169648E-1,-7.9994726E-1,-3.5190362E-1,7.059472E-1,-6.7016906E-1,4.39229E-2,2.9972523E-1,-5.449552E-2,9.160581E-1,2.4989487E-3,9.780467E-3,-2.0325346E0,2.3427386E0,1.6925242E0,-3.349333E-1,8.50619E-4,-1.3543627E0,-1.8894494E-1,6.5026283E-1,-1.1836087E-1,2.5569564E-1,1.1166208E0,-1.2490858E0,-1.2345365E-2,-1.144494E-1,1.5338157E-1,2.2323836E-2,-1.4246568E-3,1.8525633E-1,-9.269392E-2,6.1592966E-2,-1.2169631E-2,8.2032405E-2,-1.8419735E-1,-3.1081414E-2,7.540832E-3,-2.8320534E-2,4.0262688E-2,8.507025E-3,1.4355644E-2,-2.4213994E-2,2.8902499E-2,9.864413E-2,1.5499616E-2,-7.802987E-2],"categories":[],"categories_nodes":[],"categories_segments":[],"categories_sizes":[],"default_left":[0,0,0,0,0,0,0,0,0,0,0,0,0,0,0,0,0,0,0,0,0,0,0,0,0,0,0,0,0,0,0,0,0,0,0,0,0,0,0,0,0,0,0,0,0,0,0,0,0,0,0,0,0,0,0,0,0,0,0],"id":29,"left_children":[1,3,5,-1,7,9,11,13,-1,15,17,19,21,-1,23,25,-1,27,29,31,-1,33,35,-1,-1,37,39,41,43,45,47,49,51,53,-1,55,57,-1,-1,-1,-1,-1,-1,-1,-1,-1,-1,-1,-1,-1,-1,-1,-1,-1,-1,-1,-1,-1,-1],"loss_changes":[3.3053696E2,1.9010837E3,1.1076729E2,0E0,7.0899487E0,1.2270878E2,6.616043E1,1.0837448E-1,0E0,1.2845721E2,3.793345E1,1.2726275E2,4.909703E1,0E0,1.8660948E-3,3.9624405E1,0E0,2.6239601E1,4.728921E1,1.5348345E0,0E0,5.4078598E1,3.483177E1,0E0,0E0,2.6403427E0,2.7541332E0,4.5133972E1,3.322205E1,2.1626322E1,8.476524E1,1.111411E0,8.623743E-2,2.40267E1,0E0,3.1601768E1,3.8834696E0,0E0,0E0,0E0,0E0,0E0,0E0,0E0,0E0,0E0,0E0,0E0,0E0,0E0,0E0,0E0,0E0,0E0,0E0,0E0,0E0,0E0,0E0],"parents":[2147483647,0,0,1,1,2,2,4,4,5,5,6,6,7,7,9,9,10,10,11,11,12,12,14,14,15,15,17,17,18,18,19,19,21,21,22,22,25,25,26,26,27,27,28,28,29,29,30,30,31,31,32,32,33,33,35,35,36,36],"right_children":[2,4,6,-1,8,10,12,14,-1,16,18,20,22,-1,24,26,-1,28,30,32,-1,34,36,-1,-1,38,40,42,44,46,48,50,52,54,-1,56,58,-1,-1,-1,-1,-1,-1,-1,-1,-1,-1,-1,-1,-1,-1,-1,-1,-1,-1,-1,-1,-1,-1],"split_conditions":[9.9E1,9.3E-1,3E0,1.6733385E0,1.27E0,2E0,5.4E-1,1.54E0,-5.8516216E-2,2.415E3,1.5E2,7.1E-1,1.6E0,2.6121845E-2,6E0,2.56E0,-3.5190362E-1,1.496E3,1.2E0,4.4E-1,2.9972523E-1,2.2E0,3.2E1,2.4989487E-3,9.780467E-3,7.1E-1,1.73E0,9.32E2,5.259E3,2.68E0,2.6E0,4.1E-1,1.5E2,5E0,2.5569564E-1,8.7E-1,1E0,-1.2345365E-2,-1.144494E-1,1.5338157E-1,2.2323836E-2,-1.4246568E-3,1.8525633E-1,-9.269392E-2,6.1592966E-2,-1.2169631E-2,8.2032405E-2,-1.8419735E-1,-3.1081414E-2,7.540832E-3,-2.8320534E-2,4.0262688E-2,8.507025E-3,1.4355644E-2,-2.4213994E-2,2.8902499E-2,9.864413E-2,1.5499616E-2,-7.802987E-2],"split_indices":[0,5,12,0,2,11,9,9,0,3,0,5,9,0,4,5,0,3,9,9,0,2,11,0,0,2,2,3,3,5,5,9,0,10,0,2,14,0,0,0,0,0,0,0,0,0,0,0,0,0,0,0,0,0,0,0,0,0,0],"split_type":[0,0,0,0,0,0,0,0,0,0,0,0,0,0,0,0,0,0,0,0,0,0,0,0,0,0,0,0,0,0,0,0,0,0,0,0,0,0,0,0,0,0,0,0,0,0,0,0,0,0,0,0,0,0,0,0,0,0,0],"sum_hessian":[4.01E2,1.1E1,3.9E2,1E0,1E1,1.39E2,2.51E2,6E0,4E0,1.3E1,1.26E2,1.4E1,2.37E2,3E0,3E0,8E0,5E0,2.4E1,1.02E2,9E0,5E0,1.61E2,7.6E1,1E0,2E0,6E0,2E0,1.2E1,1.2E1,5.2E1,5E1,7E0,2E0,1.6E2,1E0,7E1,6E0,1E0,5E0,1E0,1E0,7E0,5E0,6E0,6E0,4.6E1,6E0,1.1E1,3.9E1,4E0,3E0,1E0,1E0,7.6E1,8.4E1,4.4E1,2.6E1,1E0,5E0],"tree_param":{"num_deleted":"0","num_feature":"15","num_nodes":"59","size_leaf_vector":"1"}},{"base_weights":[2.116486E-2,-1.411213E-1,1.631505E0,-4.4252244E-1,-9.733133E-2,6.72159E-1,-3.7967017E-1,2.0505631E-1,2.8493738E0,-1.5491527E0,-2.1565072E-1,1.3666855E-1,1.5728919E-1,3.6657262E0,-1.6955814E-1,-5.0852304E0,-1.8211833E-1,-3.3848995E-1,2.134883E0,2.0026734E-2,-1.4094151E-2,3.000587E-2,2.0455979E-1,5.7702184E-2,-3.9448477E-2,-7.530772E-2,-2.895865E-1,7.673597E-2,-5.628997E-2,4.85169E-3,-4.279052E-2,1.6615766E-1,9.735442E-3],"categories":[],"categories_nodes":[],"categories_segments":[],"categories_sizes":[],"default_left":[0,0,0,0,0,0,0,0,0,0,0,0,0,0,0,0,0,0,0,0,0,0,0,0,0,0,0,0,0,0,0,0,0],"id":30,"left_children":[1,3,-1,-1,5,7,9,11,13,15,17,19,-1,21,23,25,27,29,31,-1,-1,-1,-1,-1,-1,-1,-1,-1,-1,-1,-1,-1,-1],"loss_changes":[2.1372722E3,1.524538E2,0E0,0E0,8.737527E1,1.0924986E2,5.606039E1,1.7669952E1,4.7447296E1,1.730957E2,7.5505714E1,9.942203E0,0E0,1.710965E1,5.0097756E0,1.6562958E1,4.5471767E1,5.5733467E1,2.9323818E1,0E0,0E0,0E0,0E0,0E0,0E0,0E0,0E0,0E0,0E0,0E0,0E0,0E0,0E0],"parents":[2147483647,0,0,1,1,4,4,5,5,6,6,7,7,8,8,9,9,10,10,11,11,13,13,14,14,